## LambdaMART
## No. of trees = 1000
## No. of leaves = 10
## No. of threshold candidates = 256
## Learning rate = 0.1
## Stop early = 100

<ensemble>
	<tree id="1" weight="0.1">
		<split>
			<feature> 11 </feature>
			<threshold> 0.13671875 </threshold>
			<split pos="left">
				<feature> 11 </feature>
				<threshold> 0.12890625 </threshold>
				<split pos="left">
					<feature> 11 </feature>
					<threshold> 0.0625 </threshold>
					<split pos="left">
						<output> 0.17327654 </output>
					</split>
					<split pos="right">
						<feature> 11 </feature>
						<threshold> 0.125 </threshold>
						<split pos="left">
							<output> -1.435138 </output>
						</split>
						<split pos="right">
							<output> -0.77517205 </output>
						</split>
					</split>
				</split>
				<split pos="right">
					<feature> 11 </feature>
					<threshold> 0.1328125 </threshold>
					<split pos="left">
						<output> -0.57378376 </output>
					</split>
					<split pos="right">
						<output> -0.29593247 </output>
					</split>
				</split>
			</split>
			<split pos="right">
				<feature> 11 </feature>
				<threshold> 0.16015625 </threshold>
				<split pos="left">
					<feature> 11 </feature>
					<threshold> 0.140625 </threshold>
					<split pos="left">
						<output> -0.03495949 </output>
					</split>
					<split pos="right">
						<feature> 11 </feature>
						<threshold> 0.1484375 </threshold>
						<split pos="left">
							<feature> 11 </feature>
							<threshold> 0.14453125 </threshold>
							<split pos="left">
								<output> 0.25968903 </output>
							</split>
							<split pos="right">
								<output> 0.254863 </output>
							</split>
						</split>
						<split pos="right">
							<output> 0.5196115 </output>
						</split>
					</split>
				</split>
				<split pos="right">
					<output> 1.0478663 </output>
				</split>
			</split>
		</split>
	</tree>
	<tree id="2" weight="0.1">
		<split>
			<feature> 11 </feature>
			<threshold> 0.16015625 </threshold>
			<split pos="left">
				<output> -0.8718238 </output>
			</split>
			<split pos="right">
				<feature> 11 </feature>
				<threshold> 0.1640625 </threshold>
				<split pos="left">
					<output> 0.7864448 </output>
				</split>
				<split pos="right">
					<feature> 11 </feature>
					<threshold> 0.328125 </threshold>
					<split pos="left">
						<feature> 11 </feature>
						<threshold> 0.17578125 </threshold>
						<split pos="left">
							<feature> 11 </feature>
							<threshold> 0.16796875 </threshold>
							<split pos="left">
								<output> 0.6295182 </output>
							</split>
							<split pos="right">
								<feature> 11 </feature>
								<threshold> 0.171875 </threshold>
								<split pos="left">
									<output> 0.8054332 </output>
								</split>
								<split pos="right">
									<output> 0.833924 </output>
								</split>
							</split>
						</split>
						<split pos="right">
							<feature> 11 </feature>
							<threshold> 0.20703125 </threshold>
							<split pos="left">
								<feature> 11 </feature>
								<threshold> 0.1953125 </threshold>
								<split pos="left">
									<output> 0.9394688 </output>
								</split>
								<split pos="right">
									<feature> 11 </feature>
									<threshold> 0.203125 </threshold>
									<split pos="left">
										<output> -0.14049205 </output>
									</split>
									<split pos="right">
										<output> 0.2414526 </output>
									</split>
								</split>
							</split>
							<split pos="right">
								<output> 1.1178783 </output>
							</split>
						</split>
					</split>
					<split pos="right">
						<output> -1.3745742 </output>
					</split>
				</split>
			</split>
		</split>
	</tree>
	<tree id="3" weight="0.1">
		<split>
			<feature> 11 </feature>
			<threshold> 0.16796875 </threshold>
			<split pos="left">
				<feature> 11 </feature>
				<threshold> 0.16015625 </threshold>
				<split pos="left">
					<output> -1.0111217 </output>
				</split>
				<split pos="right">
					<feature> 11 </feature>
					<threshold> 0.1640625 </threshold>
					<split pos="left">
						<output> 0.5777423 </output>
					</split>
					<split pos="right">
						<output> -0.45707476 </output>
					</split>
				</split>
			</split>
			<split pos="right">
				<feature> 11 </feature>
				<threshold> 0.20703125 </threshold>
				<split pos="left">
					<feature> 11 </feature>
					<threshold> 0.1875 </threshold>
					<split pos="left">
						<feature> 11 </feature>
						<threshold> 0.17578125 </threshold>
						<split pos="left">
							<output> 0.9204949 </output>
						</split>
						<split pos="right">
							<feature> 11 </feature>
							<threshold> 0.1796875 </threshold>
							<split pos="left">
								<output> 1.0473564 </output>
							</split>
							<split pos="right">
								<output> 1.1957242 </output>
							</split>
						</split>
					</split>
					<split pos="right">
						<output> 0.076841764 </output>
					</split>
				</split>
				<split pos="right">
					<feature> 11 </feature>
					<threshold> 0.21875 </threshold>
					<split pos="left">
						<feature> 11 </feature>
						<threshold> 0.2109375 </threshold>
						<split pos="left">
							<output> 0.7853064 </output>
						</split>
						<split pos="right">
							<output> 0.95465 </output>
						</split>
					</split>
					<split pos="right">
						<output> 1.4547753 </output>
					</split>
				</split>
			</split>
		</split>
	</tree>
	<tree id="4" weight="0.1">
		<split>
			<feature> 11 </feature>
			<threshold> 0.16796875 </threshold>
			<split pos="left">
				<feature> 11 </feature>
				<threshold> 0.16015625 </threshold>
				<split pos="left">
					<output> -0.95578706 </output>
				</split>
				<split pos="right">
					<feature> 11 </feature>
					<threshold> 0.1640625 </threshold>
					<split pos="left">
						<output> 0.46898746 </output>
					</split>
					<split pos="right">
						<output> -0.5390696 </output>
					</split>
				</split>
			</split>
			<split pos="right">
				<feature> 11 </feature>
				<threshold> 0.1875 </threshold>
				<split pos="left">
					<feature> 11 </feature>
					<threshold> 0.1796875 </threshold>
					<split pos="left">
						<feature> 11 </feature>
						<threshold> 0.17578125 </threshold>
						<split pos="left">
							<feature> 11 </feature>
							<threshold> 0.171875 </threshold>
							<split pos="left">
								<output> 0.7880059 </output>
							</split>
							<split pos="right">
								<output> 0.7779836 </output>
							</split>
						</split>
						<split pos="right">
							<output> 1.0329542 </output>
						</split>
					</split>
					<split pos="right">
						<feature> 11 </feature>
						<threshold> 0.18359375 </threshold>
						<split pos="left">
							<output> 1.0287395 </output>
						</split>
						<split pos="right">
							<output> 1.1088951 </output>
						</split>
					</split>
				</split>
				<split pos="right">
					<feature> 11 </feature>
					<threshold> 0.21875 </threshold>
					<split pos="left">
						<output> 0.019897476 </output>
					</split>
					<split pos="right">
						<output> 1.3488728 </output>
					</split>
				</split>
			</split>
		</split>
	</tree>
	<tree id="5" weight="0.1">
		<split>
			<feature> 11 </feature>
			<threshold> 0.16796875 </threshold>
			<split pos="left">
				<feature> 11 </feature>
				<threshold> 0.13671875 </threshold>
				<split pos="left">
					<output> -1.0547014 </output>
				</split>
				<split pos="right">
					<feature> 11 </feature>
					<threshold> 0.16015625 </threshold>
					<split pos="left">
						<output> -0.6667388 </output>
					</split>
					<split pos="right">
						<feature> 11 </feature>
						<threshold> 0.1640625 </threshold>
						<split pos="left">
							<output> 0.3575698 </output>
						</split>
						<split pos="right">
							<output> -0.625515 </output>
						</split>
					</split>
				</split>
			</split>
			<split pos="right">
				<feature> 11 </feature>
				<threshold> 0.1875 </threshold>
				<split pos="left">
					<feature> 11 </feature>
					<threshold> 0.18359375 </threshold>
					<split pos="left">
						<feature> 11 </feature>
						<threshold> 0.17578125 </threshold>
						<split pos="left">
							<feature> 11 </feature>
							<threshold> 0.171875 </threshold>
							<split pos="left">
								<output> 0.6570164 </output>
							</split>
							<split pos="right">
								<output> 0.7470415 </output>
							</split>
						</split>
						<split pos="right">
							<feature> 11 </feature>
							<threshold> 0.1796875 </threshold>
							<split pos="left">
								<output> 0.94220483 </output>
							</split>
							<split pos="right">
								<output> 0.97427577 </output>
							</split>
						</split>
					</split>
					<split pos="right">
						<output> 1.0099695 </output>
					</split>
				</split>
				<split pos="right">
					<output> 0.72950757 </output>
				</split>
			</split>
		</split>
	</tree>
	<tree id="6" weight="0.1">
		<split>
			<feature> 11 </feature>
			<threshold> 0.16796875 </threshold>
			<split pos="left">
				<feature> 11 </feature>
				<threshold> 0.13671875 </threshold>
				<split pos="left">
					<output> -0.9472875 </output>
				</split>
				<split pos="right">
					<feature> 11 </feature>
					<threshold> 0.16015625 </threshold>
					<split pos="left">
						<output> -0.56371987 </output>
					</split>
					<split pos="right">
						<feature> 11 </feature>
						<threshold> 0.1640625 </threshold>
						<split pos="left">
							<output> 0.26727736 </output>
						</split>
						<split pos="right">
							<output> -0.5044948 </output>
						</split>
					</split>
				</split>
			</split>
			<split pos="right">
				<feature> 11 </feature>
				<threshold> 0.1875 </threshold>
				<split pos="left">
					<feature> 11 </feature>
					<threshold> 0.18359375 </threshold>
					<split pos="left">
						<feature> 11 </feature>
						<threshold> 0.17578125 </threshold>
						<split pos="left">
							<feature> 11 </feature>
							<threshold> 0.171875 </threshold>
							<split pos="left">
								<output> 0.5565443 </output>
							</split>
							<split pos="right">
								<output> 0.640463 </output>
							</split>
						</split>
						<split pos="right">
							<output> 0.85009164 </output>
						</split>
					</split>
					<split pos="right">
						<output> 0.9071489 </output>
					</split>
				</split>
				<split pos="right">
					<feature> 11 </feature>
					<threshold> 0.21875 </threshold>
					<split pos="left">
						<output> -0.31949958 </output>
					</split>
					<split pos="right">
						<output> 1.1917266 </output>
					</split>
				</split>
			</split>
		</split>
	</tree>
	<tree id="7" weight="0.1">
		<split>
			<feature> 11 </feature>
			<threshold> 0.16796875 </threshold>
			<split pos="left">
				<feature> 11 </feature>
				<threshold> 0.1328125 </threshold>
				<split pos="left">
					<output> -0.92121947 </output>
				</split>
				<split pos="right">
					<feature> 11 </feature>
					<threshold> 0.15625 </threshold>
					<split pos="left">
						<output> -0.53249246 </output>
					</split>
					<split pos="right">
						<feature> 11 </feature>
						<threshold> 0.1640625 </threshold>
						<split pos="left">
							<feature> 11 </feature>
							<threshold> 0.16015625 </threshold>
							<split pos="left">
								<output> -0.0743281 </output>
							</split>
							<split pos="right">
								<output> 0.21594672 </output>
							</split>
						</split>
						<split pos="right">
							<output> -0.38690645 </output>
						</split>
					</split>
				</split>
			</split>
			<split pos="right">
				<feature> 11 </feature>
				<threshold> 0.1875 </threshold>
				<split pos="left">
					<feature> 11 </feature>
					<threshold> 0.18359375 </threshold>
					<split pos="left">
						<feature> 11 </feature>
						<threshold> 0.17578125 </threshold>
						<split pos="left">
							<feature> 11 </feature>
							<threshold> 0.171875 </threshold>
							<split pos="left">
								<output> 0.47332248 </output>
							</split>
							<split pos="right">
								<output> 0.5514645 </output>
							</split>
						</split>
						<split pos="right">
							<output> 0.7586563 </output>
						</split>
					</split>
					<split pos="right">
						<output> 0.8187398 </output>
					</split>
				</split>
				<split pos="right">
					<output> 0.55066264 </output>
				</split>
			</split>
		</split>
	</tree>
	<tree id="8" weight="0.1">
		<split>
			<feature> 11 </feature>
			<threshold> 0.16796875 </threshold>
			<split pos="left">
				<feature> 11 </feature>
				<threshold> 0.14453125 </threshold>
				<split pos="left">
					<output> -0.74859685 </output>
				</split>
				<split pos="right">
					<feature> 11 </feature>
					<threshold> 0.15625 </threshold>
					<split pos="left">
						<output> -0.36176893 </output>
					</split>
					<split pos="right">
						<feature> 11 </feature>
						<threshold> 0.1640625 </threshold>
						<split pos="left">
							<feature> 11 </feature>
							<threshold> 0.16015625 </threshold>
							<split pos="left">
								<output> 0.6270638 </output>
							</split>
							<split pos="right">
								<output> 0.16254708 </output>
							</split>
						</split>
						<split pos="right">
							<output> -0.30260623 </output>
						</split>
					</split>
				</split>
			</split>
			<split pos="right">
				<feature> 11 </feature>
				<threshold> 0.33203125 </threshold>
				<split pos="left">
					<feature> 11 </feature>
					<threshold> 0.1875 </threshold>
					<split pos="left">
						<feature> 11 </feature>
						<threshold> 0.18359375 </threshold>
						<split pos="left">
							<feature> 11 </feature>
							<threshold> 0.17578125 </threshold>
							<split pos="left">
								<output> 0.4359302 </output>
							</split>
							<split pos="right">
								<output> 0.6772891 </output>
							</split>
						</split>
						<split pos="right">
							<output> 0.7428079 </output>
						</split>
					</split>
					<split pos="right">
						<output> 0.5207307 </output>
					</split>
				</split>
				<split pos="right">
					<output> -3.146353 </output>
				</split>
			</split>
		</split>
	</tree>
	<tree id="9" weight="0.1">
		<split>
			<feature> 11 </feature>
			<threshold> 0.171875 </threshold>
			<split pos="left">
				<feature> 11 </feature>
				<threshold> 0.15625 </threshold>
				<split pos="left">
					<output> -0.60348 </output>
				</split>
				<split pos="right">
					<feature> 11 </feature>
					<threshold> 0.16796875 </threshold>
					<split pos="left">
						<feature> 11 </feature>
						<threshold> 0.1640625 </threshold>
						<split pos="left">
							<feature> 11 </feature>
							<threshold> 0.16015625 </threshold>
							<split pos="left">
								<output> 0.5660287 </output>
							</split>
							<split pos="right">
								<output> 0.06577457 </output>
							</split>
						</split>
						<split pos="right">
							<output> -0.23071857 </output>
						</split>
					</split>
					<split pos="right">
						<output> 0.32799911 </output>
					</split>
				</split>
			</split>
			<split pos="right">
				<feature> 11 </feature>
				<threshold> 0.1875 </threshold>
				<split pos="left">
					<feature> 11 </feature>
					<threshold> 0.18359375 </threshold>
					<split pos="left">
						<feature> 11 </feature>
						<threshold> 0.17578125 </threshold>
						<split pos="left">
							<output> 0.40322748 </output>
						</split>
						<split pos="right">
							<output> 0.60324305 </output>
						</split>
					</split>
					<split pos="right">
						<output> 0.67532086 </output>
					</split>
				</split>
				<split pos="right">
					<feature> 11 </feature>
					<threshold> 0.21875 </threshold>
					<split pos="left">
						<output> -0.539153 </output>
					</split>
					<split pos="right">
						<output> 1.063583 </output>
					</split>
				</split>
			</split>
		</split>
	</tree>
	<tree id="10" weight="0.1">
		<split>
			<feature> 11 </feature>
			<threshold> 0.171875 </threshold>
			<split pos="left">
				<feature> 11 </feature>
				<threshold> 0.140625 </threshold>
				<split pos="left">
					<output> -0.65995586 </output>
				</split>
				<split pos="right">
					<feature> 11 </feature>
					<threshold> 0.15625 </threshold>
					<split pos="left">
						<output> -0.25934273 </output>
					</split>
					<split pos="right">
						<feature> 11 </feature>
						<threshold> 0.16796875 </threshold>
						<split pos="left">
							<feature> 11 </feature>
							<threshold> 0.16015625 </threshold>
							<split pos="left">
								<output> 0.52786124 </output>
							</split>
							<split pos="right">
								<feature> 11 </feature>
								<threshold> 0.1640625 </threshold>
								<split pos="left">
									<output> 0.008539604 </output>
								</split>
								<split pos="right">
									<output> -0.14575517 </output>
								</split>
							</split>
						</split>
						<split pos="right">
							<output> 0.27257708 </output>
						</split>
					</split>
				</split>
			</split>
			<split pos="right">
				<feature> 11 </feature>
				<threshold> 0.1875 </threshold>
				<split pos="left">
					<feature> 11 </feature>
					<threshold> 0.18359375 </threshold>
					<split pos="left">
						<feature> 11 </feature>
						<threshold> 0.17578125 </threshold>
						<split pos="left">
							<output> 0.33645734 </output>
						</split>
						<split pos="right">
							<output> 0.5374667 </output>
						</split>
					</split>
					<split pos="right">
						<output> 0.6109335 </output>
					</split>
				</split>
				<split pos="right">
					<output> 0.48250574 </output>
				</split>
			</split>
		</split>
	</tree>
	<tree id="11" weight="0.1">
		<split>
			<feature> 11 </feature>
			<threshold> 0.171875 </threshold>
			<split pos="left">
				<feature> 11 </feature>
				<threshold> 0.1328125 </threshold>
				<split pos="left">
					<output> -0.70927155 </output>
				</split>
				<split pos="right">
					<feature> 11 </feature>
					<threshold> 0.15625 </threshold>
					<split pos="left">
						<output> -0.29264975 </output>
					</split>
					<split pos="right">
						<feature> 11 </feature>
						<threshold> 0.16796875 </threshold>
						<split pos="left">
							<feature> 11 </feature>
							<threshold> 0.16015625 </threshold>
							<split pos="left">
								<output> 0.4823185 </output>
							</split>
							<split pos="right">
								<feature> 11 </feature>
								<threshold> 0.1640625 </threshold>
								<split pos="left">
									<output> -0.016942855 </output>
								</split>
								<split pos="right">
									<output> -0.09265329 </output>
								</split>
							</split>
						</split>
						<split pos="right">
							<output> 0.22114444 </output>
						</split>
					</split>
				</split>
			</split>
			<split pos="right">
				<feature> 11 </feature>
				<threshold> 0.21875 </threshold>
				<split pos="left">
					<feature> 11 </feature>
					<threshold> 0.1875 </threshold>
					<split pos="left">
						<feature> 11 </feature>
						<threshold> 0.18359375 </threshold>
						<split pos="left">
							<output> 0.41199744 </output>
						</split>
						<split pos="right">
							<output> 0.55534583 </output>
						</split>
					</split>
					<split pos="right">
						<output> -0.6067215 </output>
					</split>
				</split>
				<split pos="right">
					<output> 0.9552083 </output>
				</split>
			</split>
		</split>
	</tree>
	<tree id="12" weight="0.1">
		<split>
			<feature> 11 </feature>
			<threshold> 0.328125 </threshold>
			<split pos="left">
				<feature> 11 </feature>
				<threshold> 0.171875 </threshold>
				<split pos="left">
					<feature> 11 </feature>
					<threshold> 0.13671875 </threshold>
					<split pos="left">
						<output> -0.5845686 </output>
					</split>
					<split pos="right">
						<feature> 11 </feature>
						<threshold> 0.15234375 </threshold>
						<split pos="left">
							<output> -0.21894385 </output>
						</split>
						<split pos="right">
							<feature> 11 </feature>
							<threshold> 0.16796875 </threshold>
							<split pos="left">
								<feature> 11 </feature>
								<threshold> 0.16015625 </threshold>
								<split pos="left">
									<output> 0.31905076 </output>
								</split>
								<split pos="right">
									<output> -0.03750216 </output>
								</split>
							</split>
							<split pos="right">
								<output> 0.18087403 </output>
							</split>
						</split>
					</split>
				</split>
				<split pos="right">
					<feature> 11 </feature>
					<threshold> 0.21875 </threshold>
					<split pos="left">
						<feature> 11 </feature>
						<threshold> 0.1875 </threshold>
						<split pos="left">
							<feature> 11 </feature>
							<threshold> 0.18359375 </threshold>
							<split pos="left">
								<output> 0.36117354 </output>
							</split>
							<split pos="right">
								<output> 0.5028901 </output>
							</split>
						</split>
						<split pos="right">
							<output> -0.596975 </output>
						</split>
					</split>
					<split pos="right">
						<output> 0.9315052 </output>
					</split>
				</split>
			</split>
			<split pos="right">
				<output> -3.676211 </output>
			</split>
		</split>
	</tree>
	<tree id="13" weight="0.1">
		<split>
			<feature> 11 </feature>
			<threshold> 0.17578125 </threshold>
			<split pos="left">
				<feature> 11 </feature>
				<threshold> 0.140625 </threshold>
				<split pos="left">
					<output> -0.50599045 </output>
				</split>
				<split pos="right">
					<feature> 11 </feature>
					<threshold> 0.16796875 </threshold>
					<split pos="left">
						<feature> 11 </feature>
						<threshold> 0.15234375 </threshold>
						<split pos="left">
							<output> -0.16661805 </output>
						</split>
						<split pos="right">
							<feature> 11 </feature>
							<threshold> 0.16015625 </threshold>
							<split pos="left">
								<output> 0.33533296 </output>
							</split>
							<split pos="right">
								<feature> 11 </feature>
								<threshold> 0.1640625 </threshold>
								<split pos="left">
									<output> -0.067979366 </output>
								</split>
								<split pos="right">
									<output> -0.12740576 </output>
								</split>
							</split>
						</split>
					</split>
					<split pos="right">
						<feature> 11 </feature>
						<threshold> 0.171875 </threshold>
						<split pos="left">
							<output> 0.14674033 </output>
						</split>
						<split pos="right">
							<output> 0.18039526 </output>
						</split>
					</split>
				</split>
			</split>
			<split pos="right">
				<feature> 11 </feature>
				<threshold> 0.1875 </threshold>
				<split pos="left">
					<feature> 11 </feature>
					<threshold> 0.18359375 </threshold>
					<split pos="left">
						<output> 0.38818765 </output>
					</split>
					<split pos="right">
						<output> 0.45644706 </output>
					</split>
				</split>
				<split pos="right">
					<output> 0.39784104 </output>
				</split>
			</split>
		</split>
	</tree>
	<tree id="14" weight="0.1">
		<split>
			<feature> 11 </feature>
			<threshold> 0.21875 </threshold>
			<split pos="left">
				<feature> 11 </feature>
				<threshold> 0.16796875 </threshold>
				<split pos="left">
					<feature> 11 </feature>
					<threshold> 0.1328125 </threshold>
					<split pos="left">
						<output> -0.58514386 </output>
					</split>
					<split pos="right">
						<feature> 11 </feature>
						<threshold> 0.14453125 </threshold>
						<split pos="left">
							<output> -0.24608196 </output>
						</split>
						<split pos="right">
							<feature> 11 </feature>
							<threshold> 0.16015625 </threshold>
							<split pos="left">
								<output> 0.11416015 </output>
							</split>
							<split pos="right">
								<feature> 11 </feature>
								<threshold> 0.1640625 </threshold>
								<split pos="left">
									<output> -0.091139704 </output>
								</split>
								<split pos="right">
									<output> -0.078198455 </output>
								</split>
							</split>
						</split>
					</split>
				</split>
				<split pos="right">
					<feature> 11 </feature>
					<threshold> 0.1875 </threshold>
					<split pos="left">
						<feature> 11 </feature>
						<threshold> 0.18359375 </threshold>
						<split pos="left">
							<feature> 11 </feature>
							<threshold> 0.17578125 </threshold>
							<split pos="left">
								<output> 0.12895222 </output>
							</split>
							<split pos="right">
								<output> 0.3428071 </output>
							</split>
						</split>
						<split pos="right">
							<output> 0.41395497 </output>
						</split>
					</split>
					<split pos="right">
						<output> -0.72785234 </output>
					</split>
				</split>
			</split>
			<split pos="right">
				<output> 0.87921566 </output>
			</split>
		</split>
	</tree>
	<tree id="15" weight="0.1">
		<split>
			<feature> 11 </feature>
			<threshold> 0.21875 </threshold>
			<split pos="left">
				<feature> 11 </feature>
				<threshold> 0.171875 </threshold>
				<split pos="left">
					<feature> 11 </feature>
					<threshold> 0.12890625 </threshold>
					<split pos="left">
						<output> -0.6339528 </output>
					</split>
					<split pos="right">
						<feature> 11 </feature>
						<threshold> 0.14453125 </threshold>
						<split pos="left">
							<output> -0.24540226 </output>
						</split>
						<split pos="right">
							<feature> 11 </feature>
							<threshold> 0.16015625 </threshold>
							<split pos="left">
								<output> 0.123286545 </output>
							</split>
							<split pos="right">
								<feature> 11 </feature>
								<threshold> 0.1640625 </threshold>
								<split pos="left">
									<output> -0.10625446 </output>
								</split>
								<split pos="right">
									<output> 0.07136095 </output>
								</split>
							</split>
						</split>
					</split>
				</split>
				<split pos="right">
					<feature> 11 </feature>
					<threshold> 0.1875 </threshold>
					<split pos="left">
						<feature> 11 </feature>
						<threshold> 0.18359375 </threshold>
						<split pos="left">
							<feature> 11 </feature>
							<threshold> 0.17578125 </threshold>
							<split pos="left">
								<output> 0.1202901 </output>
							</split>
							<split pos="right">
								<output> 0.30479354 </output>
							</split>
						</split>
						<split pos="right">
							<output> 0.3737067 </output>
						</split>
					</split>
					<split pos="right">
						<output> -0.6612205 </output>
					</split>
				</split>
			</split>
			<split pos="right">
				<output> 0.8345605 </output>
			</split>
		</split>
	</tree>
	<tree id="16" weight="0.1">
		<split>
			<feature> 11 </feature>
			<threshold> 0.21875 </threshold>
			<split pos="left">
				<feature> 11 </feature>
				<threshold> 0.171875 </threshold>
				<split pos="left">
					<feature> 11 </feature>
					<threshold> 0.1328125 </threshold>
					<split pos="left">
						<output> -0.5033354 </output>
					</split>
					<split pos="right">
						<feature> 11 </feature>
						<threshold> 0.1484375 </threshold>
						<split pos="left">
							<output> -0.16042845 </output>
						</split>
						<split pos="right">
							<feature> 11 </feature>
							<threshold> 0.16015625 </threshold>
							<split pos="left">
								<output> 0.21763495 </output>
							</split>
							<split pos="right">
								<feature> 11 </feature>
								<threshold> 0.1640625 </threshold>
								<split pos="left">
									<output> -0.1166004 </output>
								</split>
								<split pos="right">
									<output> 0.06190113 </output>
								</split>
							</split>
						</split>
					</split>
				</split>
				<split pos="right">
					<feature> 11 </feature>
					<threshold> 0.1875 </threshold>
					<split pos="left">
						<feature> 11 </feature>
						<threshold> 0.18359375 </threshold>
						<split pos="left">
							<feature> 11 </feature>
							<threshold> 0.1796875 </threshold>
							<split pos="left">
								<output> 0.16438055 </output>
							</split>
							<split pos="right">
								<output> 0.3011353 </output>
							</split>
						</split>
						<split pos="right">
							<output> 0.3370926 </output>
						</split>
					</split>
					<split pos="right">
						<output> -0.6010428 </output>
					</split>
				</split>
			</split>
			<split pos="right">
				<output> 0.7927025 </output>
			</split>
		</split>
	</tree>
	<tree id="17" weight="0.1">
		<split>
			<feature> 11 </feature>
			<threshold> 0.33203125 </threshold>
			<split pos="left">
				<feature> 11 </feature>
				<threshold> 0.17578125 </threshold>
				<split pos="left">
					<feature> 11 </feature>
					<threshold> 0.12890625 </threshold>
					<split pos="left">
						<output> -0.5587302 </output>
					</split>
					<split pos="right">
						<feature> 11 </feature>
						<threshold> 0.14453125 </threshold>
						<split pos="left">
							<output> -0.18440522 </output>
						</split>
						<split pos="right">
							<feature> 11 </feature>
							<threshold> 0.16796875 </threshold>
							<split pos="left">
								<feature> 11 </feature>
								<threshold> 0.16015625 </threshold>
								<split pos="left">
									<output> 0.0679505 </output>
								</split>
								<split pos="right">
									<feature> 11 </feature>
									<threshold> 0.1640625 </threshold>
									<split pos="left">
										<output> -0.08239425 </output>
									</split>
									<split pos="right">
										<output> 0.051922195 </output>
									</split>
								</split>
							</split>
							<split pos="right">
								<output> 0.064002424 </output>
							</split>
						</split>
					</split>
				</split>
				<split pos="right">
					<feature> 11 </feature>
					<threshold> 0.21875 </threshold>
					<split pos="left">
						<feature> 11 </feature>
						<threshold> 0.1875 </threshold>
						<split pos="left">
							<output> 0.2756575 </output>
						</split>
						<split pos="right">
							<output> -0.1377847 </output>
						</split>
					</split>
					<split pos="right">
						<output> 0.740697 </output>
					</split>
				</split>
			</split>
			<split pos="right">
				<output> -3.7750266 </output>
			</split>
		</split>
	</tree>
	<tree id="18" weight="0.1">
		<split>
			<feature> 11 </feature>
			<threshold> 0.21875 </threshold>
			<split pos="left">
				<feature> 11 </feature>
				<threshold> 0.17578125 </threshold>
				<split pos="left">
					<feature> 11 </feature>
					<threshold> 0.12890625 </threshold>
					<split pos="left">
						<output> -0.5294521 </output>
					</split>
					<split pos="right">
						<feature> 11 </feature>
						<threshold> 0.140625 </threshold>
						<split pos="left">
							<output> -0.20256129 </output>
						</split>
						<split pos="right">
							<feature> 11 </feature>
							<threshold> 0.16015625 </threshold>
							<split pos="left">
								<output> 0.026048303 </output>
							</split>
							<split pos="right">
								<feature> 11 </feature>
								<threshold> 0.1640625 </threshold>
								<split pos="left">
									<output> -0.13417241 </output>
								</split>
								<split pos="right">
									<feature> 11 </feature>
									<threshold> 0.16796875 </threshold>
									<split pos="left">
										<output> 0.08093825 </output>
									</split>
									<split pos="right">
										<output> 0.04886414 </output>
									</split>
								</split>
							</split>
						</split>
					</split>
				</split>
				<split pos="right">
					<feature> 11 </feature>
					<threshold> 0.1875 </threshold>
					<split pos="left">
						<feature> 11 </feature>
						<threshold> 0.18359375 </threshold>
						<split pos="left">
							<output> 0.21251018 </output>
						</split>
						<split pos="right">
							<output> 0.27612308 </output>
						</split>
					</split>
					<split pos="right">
						<output> -0.114888005 </output>
					</split>
				</split>
			</split>
			<split pos="right">
				<output> 0.71898395 </output>
			</split>
		</split>
	</tree>
	<tree id="19" weight="0.1">
		<split>
			<feature> 11 </feature>
			<threshold> 0.17578125 </threshold>
			<split pos="left">
				<feature> 11 </feature>
				<threshold> 0.1328125 </threshold>
				<split pos="left">
					<output> -0.43022573 </output>
				</split>
				<split pos="right">
					<feature> 11 </feature>
					<threshold> 0.1640625 </threshold>
					<split pos="left">
						<feature> 11 </feature>
						<threshold> 0.16015625 </threshold>
						<split pos="left">
							<output> -0.045045912 </output>
						</split>
						<split pos="right">
							<output> -0.13650042 </output>
						</split>
					</split>
					<split pos="right">
						<feature> 11 </feature>
						<threshold> 0.171875 </threshold>
						<split pos="left">
							<output> 0.040252235 </output>
						</split>
						<split pos="right">
							<output> 0.039560433 </output>
						</split>
					</split>
				</split>
			</split>
			<split pos="right">
				<feature> 11 </feature>
				<threshold> 0.21875 </threshold>
				<split pos="left">
					<feature> 11 </feature>
					<threshold> 0.1875 </threshold>
					<split pos="left">
						<feature> 11 </feature>
						<threshold> 0.18359375 </threshold>
						<split pos="left">
							<feature> 11 </feature>
							<threshold> 0.1796875 </threshold>
							<split pos="left">
								<output> 0.15720725 </output>
							</split>
							<split pos="right">
								<output> 0.2141683 </output>
							</split>
						</split>
						<split pos="right">
							<output> 0.24749869 </output>
						</split>
					</split>
					<split pos="right">
						<output> 0.57566243 </output>
					</split>
				</split>
				<split pos="right">
					<output> 0.63864595 </output>
				</split>
			</split>
		</split>
	</tree>
	<tree id="20" weight="0.1">
		<split>
			<feature> 11 </feature>
			<threshold> 0.21875 </threshold>
			<split pos="left">
				<feature> 11 </feature>
				<threshold> 0.1953125 </threshold>
				<split pos="left">
					<feature> 11 </feature>
					<threshold> 0.17578125 </threshold>
					<split pos="left">
						<feature> 11 </feature>
						<threshold> 0.12890625 </threshold>
						<split pos="left">
							<output> -0.43809584 </output>
						</split>
						<split pos="right">
							<feature> 11 </feature>
							<threshold> 0.14453125 </threshold>
							<split pos="left">
								<output> -0.11427002 </output>
							</split>
							<split pos="right">
								<feature> 11 </feature>
								<threshold> 0.16015625 </threshold>
								<split pos="left">
									<output> 0.17726357 </output>
								</split>
								<split pos="right">
									<feature> 11 </feature>
									<threshold> 0.1640625 </threshold>
									<split pos="left">
										<output> -0.13753857 </output>
									</split>
									<split pos="right">
										<output> 0.031562615 </output>
									</split>
								</split>
							</split>
						</split>
					</split>
					<split pos="right">
						<feature> 11 </feature>
						<threshold> 0.1875 </threshold>
						<split pos="left">
							<feature> 11 </feature>
							<threshold> 0.18359375 </threshold>
							<split pos="left">
								<output> 0.16390483 </output>
							</split>
							<split pos="right">
								<output> 0.22174028 </output>
							</split>
						</split>
						<split pos="right">
							<output> 0.14968207 </output>
						</split>
					</split>
				</split>
				<split pos="right">
					<output> -0.76413614 </output>
				</split>
			</split>
			<split pos="right">
				<output> 0.6082605 </output>
			</split>
		</split>
	</tree>
	<tree id="21" weight="0.1">
		<split>
			<feature> 11 </feature>
			<threshold> 0.17578125 </threshold>
			<split pos="left">
				<feature> 11 </feature>
				<threshold> 0.12890625 </threshold>
				<split pos="left">
					<output> -0.44740382 </output>
				</split>
				<split pos="right">
					<feature> 11 </feature>
					<threshold> 0.13671875 </threshold>
					<split pos="left">
						<output> -0.20267378 </output>
					</split>
					<split pos="right">
						<feature> 11 </feature>
						<threshold> 0.16015625 </threshold>
						<split pos="left">
							<output> 0.004487452 </output>
						</split>
						<split pos="right">
							<feature> 11 </feature>
							<threshold> 0.1640625 </threshold>
							<split pos="left">
								<output> -0.13395472 </output>
							</split>
							<split pos="right">
								<feature> 11 </feature>
								<threshold> 0.171875 </threshold>
								<split pos="left">
									<output> 0.03289354 </output>
								</split>
								<split pos="right">
									<output> 0.022056414 </output>
								</split>
							</split>
						</split>
					</split>
				</split>
			</split>
			<split pos="right">
				<feature> 11 </feature>
				<threshold> 0.21875 </threshold>
				<split pos="left">
					<feature> 11 </feature>
					<threshold> 0.1875 </threshold>
					<split pos="left">
						<feature> 11 </feature>
						<threshold> 0.18359375 </threshold>
						<split pos="left">
							<output> 0.14708693 </output>
						</split>
						<split pos="right">
							<output> 0.20120431 </output>
						</split>
					</split>
					<split pos="right">
						<output> 0.6331304 </output>
					</split>
				</split>
				<split pos="right">
					<output> 0.57498765 </output>
				</split>
			</split>
		</split>
	</tree>
	<tree id="22" weight="0.1">
		<split>
			<feature> 11 </feature>
			<threshold> 0.21875 </threshold>
			<split pos="left">
				<feature> 11 </feature>
				<threshold> 0.17578125 </threshold>
				<split pos="left">
					<feature> 11 </feature>
					<threshold> 0.12890625 </threshold>
					<split pos="left">
						<output> -0.3863724 </output>
					</split>
					<split pos="right">
						<feature> 11 </feature>
						<threshold> 0.16015625 </threshold>
						<split pos="left">
							<output> -0.027236175 </output>
						</split>
						<split pos="right">
							<feature> 11 </feature>
							<threshold> 0.1640625 </threshold>
							<split pos="left">
								<output> -0.13335148 </output>
							</split>
							<split pos="right">
								<feature> 11 </feature>
								<threshold> 0.16796875 </threshold>
								<split pos="left">
									<output> 0.1921892 </output>
								</split>
								<split pos="right">
									<feature> 11 </feature>
									<threshold> 0.171875 </threshold>
									<split pos="left">
										<output> -6.5064797E-4 </output>
									</split>
									<split pos="right">
										<output> 0.013815096 </output>
									</split>
								</split>
							</split>
						</split>
					</split>
				</split>
				<split pos="right">
					<feature> 11 </feature>
					<threshold> 0.1875 </threshold>
					<split pos="left">
						<feature> 11 </feature>
						<threshold> 0.18359375 </threshold>
						<split pos="left">
							<output> 0.12858121 </output>
						</split>
						<split pos="right">
							<output> 0.18055692 </output>
						</split>
					</split>
					<split pos="right">
						<output> -0.12931375 </output>
					</split>
				</split>
			</split>
			<split pos="right">
				<output> 0.5476454 </output>
			</split>
		</split>
	</tree>
	<tree id="23" weight="0.1">
		<split>
			<feature> 11 </feature>
			<threshold> 0.328125 </threshold>
			<split pos="left">
				<feature> 11 </feature>
				<threshold> 0.21875 </threshold>
				<split pos="left">
					<feature> 11 </feature>
					<threshold> 0.17578125 </threshold>
					<split pos="left">
						<feature> 11 </feature>
						<threshold> 0.12890625 </threshold>
						<split pos="left">
							<output> -0.34288314 </output>
						</split>
						<split pos="right">
							<feature> 11 </feature>
							<threshold> 0.140625 </threshold>
							<split pos="left">
								<output> -0.10052333 </output>
							</split>
							<split pos="right">
								<feature> 11 </feature>
								<threshold> 0.16015625 </threshold>
								<split pos="left">
									<output> 0.07534951 </output>
								</split>
								<split pos="right">
									<feature> 11 </feature>
									<threshold> 0.1640625 </threshold>
									<split pos="left">
										<output> -0.08259979 </output>
									</split>
									<split pos="right">
										<output> 0.018920265 </output>
									</split>
								</split>
							</split>
						</split>
					</split>
					<split pos="right">
						<feature> 11 </feature>
						<threshold> 0.1875 </threshold>
						<split pos="left">
							<feature> 11 </feature>
							<threshold> 0.18359375 </threshold>
							<split pos="left">
								<output> 0.1136822 </output>
							</split>
							<split pos="right">
								<output> 0.16104174 </output>
							</split>
						</split>
						<split pos="right">
							<output> -0.10540009 </output>
						</split>
					</split>
				</split>
				<split pos="right">
					<output> 0.54929376 </output>
				</split>
			</split>
			<split pos="right">
				<output> -4.243757 </output>
			</split>
		</split>
	</tree>
	<tree id="24" weight="0.1">
		<split>
			<feature> 11 </feature>
			<threshold> 0.21875 </threshold>
			<split pos="left">
				<feature> 11 </feature>
				<threshold> 0.17578125 </threshold>
				<split pos="left">
					<feature> 11 </feature>
					<threshold> 0.1328125 </threshold>
					<split pos="left">
						<output> -0.2716343 </output>
					</split>
					<split pos="right">
						<feature> 11 </feature>
						<threshold> 0.16015625 </threshold>
						<split pos="left">
							<output> 8.0064073E-4 </output>
						</split>
						<split pos="right">
							<feature> 11 </feature>
							<threshold> 0.1640625 </threshold>
							<split pos="left">
								<output> -0.12764454 </output>
							</split>
							<split pos="right">
								<feature> 11 </feature>
								<threshold> 0.16796875 </threshold>
								<split pos="left">
									<output> 0.20983796 </output>
								</split>
								<split pos="right">
									<feature> 11 </feature>
									<threshold> 0.171875 </threshold>
									<split pos="left">
										<output> -0.007940234 </output>
									</split>
									<split pos="right">
										<output> 0.01177819 </output>
									</split>
								</split>
							</split>
						</split>
					</split>
				</split>
				<split pos="right">
					<feature> 11 </feature>
					<threshold> 0.1875 </threshold>
					<split pos="left">
						<feature> 11 </feature>
						<threshold> 0.18359375 </threshold>
						<split pos="left">
							<output> 0.10194941 </output>
						</split>
						<split pos="right">
							<output> 0.14541262 </output>
						</split>
					</split>
					<split pos="right">
						<output> -0.087498404 </output>
					</split>
				</split>
			</split>
			<split pos="right">
				<output> 0.5421444 </output>
			</split>
		</split>
	</tree>
	<tree id="25" weight="0.1">
		<split>
			<feature> 11 </feature>
			<threshold> 0.1796875 </threshold>
			<split pos="left">
				<feature> 11 </feature>
				<threshold> 0.13671875 </threshold>
				<split pos="left">
					<output> -0.24379995 </output>
				</split>
				<split pos="right">
					<feature> 11 </feature>
					<threshold> 0.16015625 </threshold>
					<split pos="left">
						<output> 0.014957015 </output>
					</split>
					<split pos="right">
						<feature> 11 </feature>
						<threshold> 0.1640625 </threshold>
						<split pos="left">
							<output> -0.12215626 </output>
						</split>
						<split pos="right">
							<feature> 11 </feature>
							<threshold> 0.17578125 </threshold>
							<split pos="left">
								<feature> 11 </feature>
								<threshold> 0.16796875 </threshold>
								<split pos="left">
									<output> 0.2082899 </output>
								</split>
								<split pos="right">
									<feature> 11 </feature>
									<threshold> 0.171875 </threshold>
									<split pos="left">
										<output> -0.009673186 </output>
									</split>
									<split pos="right">
										<output> 0.0081470255 </output>
									</split>
								</split>
							</split>
							<split pos="right">
								<output> 0.061503604 </output>
							</split>
						</split>
					</split>
				</split>
			</split>
			<split pos="right">
				<feature> 11 </feature>
				<threshold> 0.21875 </threshold>
				<split pos="left">
					<feature> 11 </feature>
					<threshold> 0.1875 </threshold>
					<split pos="left">
						<output> 0.12580001 </output>
					</split>
					<split pos="right">
						<output> 0.7314085 </output>
					</split>
				</split>
				<split pos="right">
					<output> 0.51307917 </output>
				</split>
			</split>
		</split>
	</tree>
	<tree id="26" weight="0.1">
		<split>
			<feature> 11 </feature>
			<threshold> 0.20703125 </threshold>
			<split pos="left">
				<feature> 11 </feature>
				<threshold> 0.1953125 </threshold>
				<split pos="left">
					<feature> 11 </feature>
					<threshold> 0.1796875 </threshold>
					<split pos="left">
						<feature> 11 </feature>
						<threshold> 0.12890625 </threshold>
						<split pos="left">
							<output> -0.27622205 </output>
						</split>
						<split pos="right">
							<feature> 11 </feature>
							<threshold> 0.16015625 </threshold>
							<split pos="left">
								<output> 0.041360937 </output>
							</split>
							<split pos="right">
								<feature> 11 </feature>
								<threshold> 0.1640625 </threshold>
								<split pos="left">
									<output> -0.11944387 </output>
								</split>
								<split pos="right">
									<feature> 11 </feature>
									<threshold> 0.17578125 </threshold>
									<split pos="left">
										<feature> 11 </feature>
										<threshold> 0.16796875 </threshold>
										<split pos="left">
											<output> 0.2036463 </output>
										</split>
										<split pos="right">
											<feature> 11 </feature>
											<threshold> 0.171875 </threshold>
											<split pos="left">
												<output> -0.013047826 </output>
											</split>
											<split pos="right">
												<output> 0.0033903006 </output>
											</split>
										</split>
									</split>
									<split pos="right">
										<output> 0.05264614 </output>
									</split>
								</split>
							</split>
						</split>
					</split>
					<split pos="right">
						<output> 0.11572605 </output>
					</split>
				</split>
				<split pos="right">
					<output> -1.3388938 </output>
				</split>
			</split>
			<split pos="right">
				<output> 0.5753737 </output>
			</split>
		</split>
	</tree>
	<tree id="27" weight="0.1">
		<split>
			<feature> 11 </feature>
			<threshold> 0.2109375 </threshold>
			<split pos="left">
				<feature> 11 </feature>
				<threshold> 0.20703125 </threshold>
				<split pos="left">
					<feature> 11 </feature>
					<threshold> 0.17578125 </threshold>
					<split pos="left">
						<feature> 11 </feature>
						<threshold> 0.0 </threshold>
						<split pos="left">
							<output> 0.81918395 </output>
						</split>
						<split pos="right">
							<feature> 11 </feature>
							<threshold> 0.125 </threshold>
							<split pos="left">
								<output> -0.5554171 </output>
							</split>
							<split pos="right">
								<feature> 11 </feature>
								<threshold> 0.16015625 </threshold>
								<split pos="left">
									<output> -0.010323328 </output>
								</split>
								<split pos="right">
									<feature> 11 </feature>
									<threshold> 0.1640625 </threshold>
									<split pos="left">
										<output> -0.13316649 </output>
									</split>
									<split pos="right">
										<output> 0.013167295 </output>
									</split>
								</split>
							</split>
						</split>
					</split>
					<split pos="right">
						<feature> 11 </feature>
						<threshold> 0.1875 </threshold>
						<split pos="left">
							<feature> 11 </feature>
							<threshold> 0.18359375 </threshold>
							<split pos="left">
								<output> 0.07297066 </output>
							</split>
							<split pos="right">
								<output> 0.1079812 </output>
							</split>
						</split>
						<split pos="right">
							<output> -0.3908974 </output>
						</split>
					</split>
				</split>
				<split pos="right">
					<output> -0.29438844 </output>
				</split>
			</split>
			<split pos="right">
				<output> 0.43038252 </output>
			</split>
		</split>
	</tree>
	<tree id="28" weight="0.1">
		<split>
			<feature> 11 </feature>
			<threshold> 0.2109375 </threshold>
			<split pos="left">
				<feature> 11 </feature>
				<threshold> 0.17578125 </threshold>
				<split pos="left">
					<feature> 11 </feature>
					<threshold> 0.0 </threshold>
					<split pos="left">
						<output> 0.6494978 </output>
					</split>
					<split pos="right">
						<feature> 11 </feature>
						<threshold> 0.125 </threshold>
						<split pos="left">
							<output> -0.54447687 </output>
						</split>
						<split pos="right">
							<feature> 11 </feature>
							<threshold> 0.140625 </threshold>
							<split pos="left">
								<output> -0.12020691 </output>
							</split>
							<split pos="right">
								<feature> 11 </feature>
								<threshold> 0.16015625 </threshold>
								<split pos="left">
									<output> 0.05594584 </output>
								</split>
								<split pos="right">
									<feature> 11 </feature>
									<threshold> 0.1640625 </threshold>
									<split pos="left">
										<output> -0.09398929 </output>
									</split>
									<split pos="right">
										<output> 0.01270721 </output>
									</split>
								</split>
							</split>
						</split>
					</split>
				</split>
				<split pos="right">
					<feature> 11 </feature>
					<threshold> 0.203125 </threshold>
					<split pos="left">
						<feature> 11 </feature>
						<threshold> 0.1875 </threshold>
						<split pos="left">
							<output> 0.08135546 </output>
						</split>
						<split pos="right">
							<output> 0.73579156 </output>
						</split>
					</split>
					<split pos="right">
						<output> -0.3133448 </output>
					</split>
				</split>
			</split>
			<split pos="right">
				<output> 0.4033748 </output>
			</split>
		</split>
	</tree>
	<tree id="29" weight="0.1">
		<split>
			<feature> 11 </feature>
			<threshold> 0.2109375 </threshold>
			<split pos="left">
				<feature> 11 </feature>
				<threshold> 0.20703125 </threshold>
				<split pos="left">
					<feature> 11 </feature>
					<threshold> 0.17578125 </threshold>
					<split pos="left">
						<feature> 11 </feature>
						<threshold> 0.0 </threshold>
						<split pos="left">
							<output> 0.59900963 </output>
						</split>
						<split pos="right">
							<feature> 11 </feature>
							<threshold> 0.125 </threshold>
							<split pos="left">
								<output> -0.49178004 </output>
							</split>
							<split pos="right">
								<feature> 11 </feature>
								<threshold> 0.16015625 </threshold>
								<split pos="left">
									<output> -0.0042642676 </output>
								</split>
								<split pos="right">
									<feature> 11 </feature>
									<threshold> 0.1640625 </threshold>
									<split pos="left">
										<output> -0.119409315 </output>
									</split>
									<split pos="right">
										<output> 0.010455936 </output>
									</split>
								</split>
							</split>
						</split>
					</split>
					<split pos="right">
						<feature> 11 </feature>
						<threshold> 0.19140625 </threshold>
						<split pos="left">
							<feature> 11 </feature>
							<threshold> 0.18359375 </threshold>
							<split pos="left">
								<output> 0.05568786 </output>
							</split>
							<split pos="right">
								<output> 0.094699815 </output>
							</split>
						</split>
						<split pos="right">
							<output> -0.6307708 </output>
						</split>
					</split>
				</split>
				<split pos="right">
					<output> -0.23694217 </output>
				</split>
			</split>
			<split pos="right">
				<output> 0.3826382 </output>
			</split>
		</split>
	</tree>
	<tree id="30" weight="0.1">
		<split>
			<feature> 11 </feature>
			<threshold> 0.20703125 </threshold>
			<split pos="left">
				<feature> 11 </feature>
				<threshold> 0.17578125 </threshold>
				<split pos="left">
					<feature> 11 </feature>
					<threshold> 0.16015625 </threshold>
					<split pos="left">
						<output> -0.03438805 </output>
					</split>
					<split pos="right">
						<feature> 11 </feature>
						<threshold> 0.1640625 </threshold>
						<split pos="left">
							<output> -0.1333818 </output>
						</split>
						<split pos="right">
							<feature> 11 </feature>
							<threshold> 0.16796875 </threshold>
							<split pos="left">
								<output> 0.25698656 </output>
							</split>
							<split pos="right">
								<feature> 11 </feature>
								<threshold> 0.171875 </threshold>
								<split pos="left">
									<output> -0.01559094 </output>
								</split>
								<split pos="right">
									<output> -0.0069732927 </output>
								</split>
							</split>
						</split>
					</split>
				</split>
				<split pos="right">
					<feature> 11 </feature>
					<threshold> 0.19140625 </threshold>
					<split pos="left">
						<feature> 11 </feature>
						<threshold> 0.18359375 </threshold>
						<split pos="left">
							<feature> 11 </feature>
							<threshold> 0.1796875 </threshold>
							<split pos="left">
								<output> 0.027439283 </output>
							</split>
							<split pos="right">
								<output> 0.07052212 </output>
							</split>
						</split>
						<split pos="right">
							<output> 0.084613085 </output>
						</split>
					</split>
					<split pos="right">
						<output> -0.56969404 </output>
					</split>
				</split>
			</split>
			<split pos="right">
				<output> 0.41896072 </output>
			</split>
		</split>
	</tree>
	<tree id="31" weight="0.1">
		<split>
			<feature> 11 </feature>
			<threshold> 0.328125 </threshold>
			<split pos="left">
				<feature> 11 </feature>
				<threshold> 0.21484375 </threshold>
				<split pos="left">
					<feature> 11 </feature>
					<threshold> 0.14453125 </threshold>
					<split pos="left">
						<output> -0.0965139 </output>
					</split>
					<split pos="right">
						<feature> 11 </feature>
						<threshold> 0.203125 </threshold>
						<split pos="left">
							<feature> 11 </feature>
							<threshold> 0.1796875 </threshold>
							<split pos="left">
								<feature> 11 </feature>
								<threshold> 0.16015625 </threshold>
								<split pos="left">
									<output> 0.108310565 </output>
								</split>
								<split pos="right">
									<feature> 11 </feature>
									<threshold> 0.1640625 </threshold>
									<split pos="left">
										<output> -0.021992512 </output>
									</split>
									<split pos="right">
										<feature> 11 </feature>
										<threshold> 0.16796875 </threshold>
										<split pos="left">
											<output> 0.24048647 </output>
										</split>
										<split pos="right">
											<feature> 11 </feature>
											<threshold> 0.17578125 </threshold>
											<split pos="left">
												<output> -0.010291839 </output>
											</split>
											<split pos="right">
												<output> 0.025033202 </output>
											</split>
										</split>
									</split>
								</split>
							</split>
							<split pos="right">
								<output> 0.08808761 </output>
							</split>
						</split>
						<split pos="right">
							<output> -0.18056764 </output>
						</split>
					</split>
				</split>
				<split pos="right">
					<output> 0.3660356 </output>
				</split>
			</split>
			<split pos="right">
				<output> -4.195492 </output>
			</split>
		</split>
	</tree>
	<tree id="32" weight="0.1">
		<split>
			<feature> 11 </feature>
			<threshold> 0.22265625 </threshold>
			<split pos="left">
				<feature> 11 </feature>
				<threshold> 0.1796875 </threshold>
				<split pos="left">
					<feature> 11 </feature>
					<threshold> 0.13671875 </threshold>
					<split pos="left">
						<output> -0.15272078 </output>
					</split>
					<split pos="right">
						<feature> 11 </feature>
						<threshold> 0.16015625 </threshold>
						<split pos="left">
							<output> 0.034367125 </output>
						</split>
						<split pos="right">
							<feature> 11 </feature>
							<threshold> 0.1640625 </threshold>
							<split pos="left">
								<output> -0.07653932 </output>
							</split>
							<split pos="right">
								<feature> 11 </feature>
								<threshold> 0.16796875 </threshold>
								<split pos="left">
									<output> 0.21545577 </output>
								</split>
								<split pos="right">
									<feature> 11 </feature>
									<threshold> 0.17578125 </threshold>
									<split pos="left">
										<feature> 11 </feature>
										<threshold> 0.171875 </threshold>
										<split pos="left">
											<output> -0.014071613 </output>
										</split>
										<split pos="right">
											<output> 5.4681406E-4 </output>
										</split>
									</split>
									<split pos="right">
										<output> 0.023126464 </output>
									</split>
								</split>
							</split>
						</split>
					</split>
				</split>
				<split pos="right">
					<feature> 11 </feature>
					<threshold> 0.1875 </threshold>
					<split pos="left">
						<output> 0.06031757 </output>
					</split>
					<split pos="right">
						<output> 0.07825501 </output>
					</split>
				</split>
			</split>
			<split pos="right">
				<output> 0.4589049 </output>
			</split>
		</split>
	</tree>
	<tree id="33" weight="0.1">
		<split>
			<feature> 11 </feature>
			<threshold> 0.21875 </threshold>
			<split pos="left">
				<feature> 11 </feature>
				<threshold> 0.140625 </threshold>
				<split pos="left">
					<output> -0.12114611 </output>
				</split>
				<split pos="right">
					<feature> 11 </feature>
					<threshold> 0.1796875 </threshold>
					<split pos="left">
						<feature> 11 </feature>
						<threshold> 0.16015625 </threshold>
						<split pos="left">
							<output> 0.05246865 </output>
						</split>
						<split pos="right">
							<feature> 11 </feature>
							<threshold> 0.1640625 </threshold>
							<split pos="left">
								<output> -0.075414166 </output>
							</split>
							<split pos="right">
								<feature> 11 </feature>
								<threshold> 0.16796875 </threshold>
								<split pos="left">
									<output> 0.17885059 </output>
								</split>
								<split pos="right">
									<feature> 11 </feature>
									<threshold> 0.17578125 </threshold>
									<split pos="left">
										<feature> 11 </feature>
										<threshold> 0.171875 </threshold>
										<split pos="left">
											<output> -0.017242381 </output>
										</split>
										<split pos="right">
											<output> -0.0076777395 </output>
										</split>
									</split>
									<split pos="right">
										<output> 0.014524948 </output>
									</split>
								</split>
							</split>
						</split>
					</split>
					<split pos="right">
						<feature> 11 </feature>
						<threshold> 0.203125 </threshold>
						<split pos="left">
							<output> 0.06678395 </output>
						</split>
						<split pos="right">
							<output> -0.13883911 </output>
						</split>
					</split>
				</split>
			</split>
			<split pos="right">
				<output> 0.4608304 </output>
			</split>
		</split>
	</tree>
	<tree id="34" weight="0.1">
		<split>
			<feature> 11 </feature>
			<threshold> 0.21875 </threshold>
			<split pos="left">
				<feature> 11 </feature>
				<threshold> 0.0 </threshold>
				<split pos="left">
					<output> 0.5456657 </output>
				</split>
				<split pos="right">
					<feature> 11 </feature>
					<threshold> 0.125 </threshold>
					<split pos="left">
						<output> -0.44485494 </output>
					</split>
					<split pos="right">
						<feature> 11 </feature>
						<threshold> 0.19140625 </threshold>
						<split pos="left">
							<feature> 11 </feature>
							<threshold> 0.1796875 </threshold>
							<split pos="left">
								<feature> 11 </feature>
								<threshold> 0.16015625 </threshold>
								<split pos="left">
									<output> -6.135712E-4 </output>
								</split>
								<split pos="right">
									<feature> 11 </feature>
									<threshold> 0.1640625 </threshold>
									<split pos="left">
										<output> -0.09593595 </output>
									</split>
									<split pos="right">
										<feature> 11 </feature>
										<threshold> 0.16796875 </threshold>
										<split pos="left">
											<output> 0.31247136 </output>
										</split>
										<split pos="right">
											<feature> 11 </feature>
											<threshold> 0.17578125 </threshold>
											<split pos="left">
												<output> -0.012629496 </output>
											</split>
											<split pos="right">
												<output> 0.012841403 </output>
											</split>
										</split>
									</split>
								</split>
							</split>
							<split pos="right">
								<output> 0.04911414 </output>
							</split>
						</split>
						<split pos="right">
							<output> -0.25263277 </output>
						</split>
					</split>
				</split>
			</split>
			<split pos="right">
				<output> 0.4371899 </output>
			</split>
		</split>
	</tree>
	<tree id="35" weight="0.1">
		<split>
			<feature> 11 </feature>
			<threshold> 0.21484375 </threshold>
			<split pos="left">
				<feature> 11 </feature>
				<threshold> 0.14453125 </threshold>
				<split pos="left">
					<output> -0.09852861 </output>
				</split>
				<split pos="right">
					<feature> 11 </feature>
					<threshold> 0.203125 </threshold>
					<split pos="left">
						<feature> 11 </feature>
						<threshold> 0.1796875 </threshold>
						<split pos="left">
							<feature> 11 </feature>
							<threshold> 0.16015625 </threshold>
							<split pos="left">
								<output> 0.068254806 </output>
							</split>
							<split pos="right">
								<feature> 11 </feature>
								<threshold> 0.1640625 </threshold>
								<split pos="left">
									<output> -0.06467018 </output>
								</split>
								<split pos="right">
									<feature> 11 </feature>
									<threshold> 0.16796875 </threshold>
									<split pos="left">
										<output> 0.28491485 </output>
									</split>
									<split pos="right">
										<feature> 11 </feature>
										<threshold> 0.17578125 </threshold>
										<split pos="left">
											<feature> 11 </feature>
											<threshold> 0.171875 </threshold>
											<split pos="left">
												<output> -0.015187899 </output>
											</split>
											<split pos="right">
												<output> -0.006022784 </output>
											</split>
										</split>
										<split pos="right">
											<output> 0.012573847 </output>
										</split>
									</split>
								</split>
							</split>
						</split>
						<split pos="right">
							<output> 0.058567725 </output>
						</split>
					</split>
					<split pos="right">
						<output> -0.17592873 </output>
					</split>
				</split>
			</split>
			<split pos="right">
				<output> 0.43977645 </output>
			</split>
		</split>
	</tree>
	<tree id="36" weight="0.1">
		<split>
			<feature> 11 </feature>
			<threshold> 0.21484375 </threshold>
			<split pos="left">
				<feature> 11 </feature>
				<threshold> 0.19140625 </threshold>
				<split pos="left">
					<feature> 11 </feature>
					<threshold> 0.1796875 </threshold>
					<split pos="left">
						<feature> 11 </feature>
						<threshold> 0.0 </threshold>
						<split pos="left">
							<output> 0.48499158 </output>
						</split>
						<split pos="right">
							<feature> 11 </feature>
							<threshold> 0.12109375 </threshold>
							<split pos="left">
								<output> -0.60707134 </output>
							</split>
							<split pos="right">
								<feature> 11 </feature>
								<threshold> 0.12890625 </threshold>
								<split pos="left">
									<output> -0.17452717 </output>
								</split>
								<split pos="right">
									<feature> 11 </feature>
									<threshold> 0.16015625 </threshold>
									<split pos="left">
										<output> 0.014652052 </output>
									</split>
									<split pos="right">
										<feature> 11 </feature>
										<threshold> 0.1640625 </threshold>
										<split pos="left">
											<output> -0.08614455 </output>
										</split>
										<split pos="right">
											<feature> 11 </feature>
											<threshold> 0.16796875 </threshold>
											<split pos="left">
												<output> 0.26505566 </output>
											</split>
											<split pos="right">
												<output> -0.0048587476 </output>
											</split>
										</split>
									</split>
								</split>
							</split>
						</split>
					</split>
					<split pos="right">
						<output> 0.040314525 </output>
					</split>
				</split>
				<split pos="right">
					<output> -0.27392492 </output>
				</split>
			</split>
			<split pos="right">
				<output> 0.41781104 </output>
			</split>
		</split>
	</tree>
	<tree id="37" weight="0.1">
		<split>
			<feature> 11 </feature>
			<threshold> 0.20703125 </threshold>
			<split pos="left">
				<feature> 11 </feature>
				<threshold> 0.1796875 </threshold>
				<split pos="left">
					<feature> 11 </feature>
					<threshold> 0.0 </threshold>
					<split pos="left">
						<output> 0.37878233 </output>
					</split>
					<split pos="right">
						<feature> 11 </feature>
						<threshold> 0.12890625 </threshold>
						<split pos="left">
							<output> -0.301485 </output>
						</split>
						<split pos="right">
							<feature> 11 </feature>
							<threshold> 0.16015625 </threshold>
							<split pos="left">
								<output> -0.010478858 </output>
							</split>
							<split pos="right">
								<feature> 11 </feature>
								<threshold> 0.1640625 </threshold>
								<split pos="left">
									<output> -0.082310066 </output>
								</split>
								<split pos="right">
									<feature> 11 </feature>
									<threshold> 0.16796875 </threshold>
									<split pos="left">
										<output> 0.24383849 </output>
									</split>
									<split pos="right">
										<feature> 11 </feature>
										<threshold> 0.17578125 </threshold>
										<split pos="left">
											<feature> 11 </feature>
											<threshold> 0.171875 </threshold>
											<split pos="left">
												<output> -0.014449207 </output>
											</split>
											<split pos="right">
												<output> -0.005405087 </output>
											</split>
										</split>
										<split pos="right">
											<output> 0.012562358 </output>
										</split>
									</split>
								</split>
							</split>
						</split>
					</split>
				</split>
				<split pos="right">
					<output> 0.045845684 </output>
				</split>
			</split>
			<split pos="right">
				<output> 0.46311885 </output>
			</split>
		</split>
	</tree>
	<tree id="38" weight="0.1">
		<split>
			<feature> 11 </feature>
			<threshold> 0.16015625 </threshold>
			<split pos="left">
				<output> -0.10624906 </output>
			</split>
			<split pos="right">
				<feature> 11 </feature>
				<threshold> 0.16796875 </threshold>
				<split pos="left">
					<feature> 11 </feature>
					<threshold> 0.1640625 </threshold>
					<split pos="left">
						<output> 0.10837036 </output>
					</split>
					<split pos="right">
						<output> 0.35546392 </output>
					</split>
				</split>
				<split pos="right">
					<feature> 11 </feature>
					<threshold> 0.2109375 </threshold>
					<split pos="left">
						<feature> 11 </feature>
						<threshold> 0.20703125 </threshold>
						<split pos="left">
							<feature> 11 </feature>
							<threshold> 0.1796875 </threshold>
							<split pos="left">
								<feature> 11 </feature>
								<threshold> 0.17578125 </threshold>
								<split pos="left">
									<feature> 11 </feature>
									<threshold> 0.171875 </threshold>
									<split pos="left">
										<output> -0.013856855 </output>
									</split>
									<split pos="right">
										<output> -0.012321675 </output>
									</split>
								</split>
								<split pos="right">
									<output> 0.010931681 </output>
								</split>
							</split>
							<split pos="right">
								<feature> 11 </feature>
								<threshold> 0.203125 </threshold>
								<split pos="left">
									<output> 0.048561342 </output>
								</split>
								<split pos="right">
									<output> -0.6800425 </output>
								</split>
							</split>
						</split>
						<split pos="right">
							<output> -0.25597087 </output>
						</split>
					</split>
					<split pos="right">
						<output> 0.30021635 </output>
					</split>
				</split>
			</split>
		</split>
	</tree>
	<tree id="39" weight="0.1">
		<split>
			<feature> 11 </feature>
			<threshold> 0.15234375 </threshold>
			<split pos="left">
				<output> -0.13801593 </output>
			</split>
			<split pos="right">
				<feature> 11 </feature>
				<threshold> 0.3359375 </threshold>
				<split pos="left">
					<feature> 11 </feature>
					<threshold> 0.328125 </threshold>
					<split pos="left">
						<feature> 11 </feature>
						<threshold> 0.21484375 </threshold>
						<split pos="left">
							<feature> 11 </feature>
							<threshold> 0.16796875 </threshold>
							<split pos="left">
								<feature> 11 </feature>
								<threshold> 0.1640625 </threshold>
								<split pos="left">
									<output> 0.09518679 </output>
								</split>
								<split pos="right">
									<output> 0.28858644 </output>
								</split>
							</split>
							<split pos="right">
								<feature> 11 </feature>
								<threshold> 0.20703125 </threshold>
								<split pos="left">
									<feature> 11 </feature>
									<threshold> 0.1953125 </threshold>
									<split pos="left">
										<feature> 11 </feature>
										<threshold> 0.17578125 </threshold>
										<split pos="left">
											<output> -0.018327821 </output>
										</split>
										<split pos="right">
											<output> 0.014881113 </output>
										</split>
									</split>
									<split pos="right">
										<output> 2.4425583 </output>
									</split>
								</split>
								<split pos="right">
									<output> -0.259693 </output>
								</split>
							</split>
						</split>
						<split pos="right">
							<output> 0.31734857 </output>
						</split>
					</split>
					<split pos="right">
						<output> -5.9439087 </output>
					</split>
				</split>
				<split pos="right">
					<output> 8.127557 </output>
				</split>
			</split>
		</split>
	</tree>
	<tree id="40" weight="0.1">
		<split>
			<feature> 11 </feature>
			<threshold> 0.3359375 </threshold>
			<split pos="left">
				<feature> 11 </feature>
				<threshold> 0.15234375 </threshold>
				<split pos="left">
					<output> -0.08976455 </output>
				</split>
				<split pos="right">
					<feature> 11 </feature>
					<threshold> 0.16796875 </threshold>
					<split pos="left">
						<feature> 11 </feature>
						<threshold> 0.16015625 </threshold>
						<split pos="left">
							<output> 0.32449788 </output>
						</split>
						<split pos="right">
							<feature> 11 </feature>
							<threshold> 0.1640625 </threshold>
							<split pos="left">
								<output> 0.28476626 </output>
							</split>
							<split pos="right">
								<output> 0.25247702 </output>
							</split>
						</split>
					</split>
					<split pos="right">
						<feature> 11 </feature>
						<threshold> 0.20703125 </threshold>
						<split pos="left">
							<feature> 11 </feature>
							<threshold> 0.1953125 </threshold>
							<split pos="left">
								<feature> 11 </feature>
								<threshold> 0.1796875 </threshold>
								<split pos="left">
									<feature> 11 </feature>
									<threshold> 0.17578125 </threshold>
									<split pos="left">
										<output> -0.022394111 </output>
									</split>
									<split pos="right">
										<output> -0.0027199662 </output>
									</split>
								</split>
								<split pos="right">
									<output> 0.01499269 </output>
								</split>
							</split>
							<split pos="right">
								<output> -1.4086643 </output>
							</split>
						</split>
						<split pos="right">
							<output> 0.36922112 </output>
						</split>
					</split>
				</split>
			</split>
			<split pos="right">
				<output> -6.6433454 </output>
			</split>
		</split>
	</tree>
	<tree id="41" weight="0.1">
		<split>
			<feature> 11 </feature>
			<threshold> 0.3359375 </threshold>
			<split pos="left">
				<feature> 11 </feature>
				<threshold> 0.16015625 </threshold>
				<split pos="left">
					<output> -0.091070525 </output>
				</split>
				<split pos="right">
					<feature> 11 </feature>
					<threshold> 0.16796875 </threshold>
					<split pos="left">
						<feature> 11 </feature>
						<threshold> 0.1640625 </threshold>
						<split pos="left">
							<output> 0.25461093 </output>
						</split>
						<split pos="right">
							<output> 0.22765672 </output>
						</split>
					</split>
					<split pos="right">
						<feature> 11 </feature>
						<threshold> 0.20703125 </threshold>
						<split pos="left">
							<feature> 11 </feature>
							<threshold> 0.18359375 </threshold>
							<split pos="left">
								<feature> 11 </feature>
								<threshold> 0.17578125 </threshold>
								<split pos="left">
									<feature> 11 </feature>
									<threshold> 0.171875 </threshold>
									<split pos="left">
										<output> -0.025773156 </output>
									</split>
									<split pos="right">
										<output> -0.015939202 </output>
									</split>
								</split>
								<split pos="right">
									<feature> 11 </feature>
									<threshold> 0.1796875 </threshold>
									<split pos="left">
										<output> -0.002620118 </output>
									</split>
									<split pos="right">
										<output> 0.0069485786 </output>
									</split>
								</split>
							</split>
							<split pos="right">
								<output> 0.041386276 </output>
							</split>
						</split>
						<split pos="right">
							<output> 0.3465063 </output>
						</split>
					</split>
				</split>
			</split>
			<split pos="right">
				<output> -4.458738 </output>
			</split>
		</split>
	</tree>
	<tree id="42" weight="0.1">
		<split>
			<feature> 11 </feature>
			<threshold> 0.20703125 </threshold>
			<split pos="left">
				<feature> 11 </feature>
				<threshold> 0.1484375 </threshold>
				<split pos="left">
					<output> -0.13101327 </output>
				</split>
				<split pos="right">
					<feature> 11 </feature>
					<threshold> 0.16796875 </threshold>
					<split pos="left">
						<feature> 11 </feature>
						<threshold> 0.1640625 </threshold>
						<split pos="left">
							<feature> 11 </feature>
							<threshold> 0.16015625 </threshold>
							<split pos="left">
								<output> 0.046701856 </output>
							</split>
							<split pos="right">
								<output> 0.09858314 </output>
							</split>
						</split>
						<split pos="right">
							<output> 0.20168102 </output>
						</split>
					</split>
					<split pos="right">
						<feature> 11 </feature>
						<threshold> 0.18359375 </threshold>
						<split pos="left">
							<feature> 11 </feature>
							<threshold> 0.17578125 </threshold>
							<split pos="left">
								<feature> 11 </feature>
								<threshold> 0.171875 </threshold>
								<split pos="left">
									<output> -0.04053987 </output>
								</split>
								<split pos="right">
									<output> -0.019588836 </output>
								</split>
							</split>
							<split pos="right">
								<feature> 11 </feature>
								<threshold> 0.1796875 </threshold>
								<split pos="left">
									<output> -0.006505327 </output>
								</split>
								<split pos="right">
									<output> 0.002954685 </output>
								</split>
							</split>
						</split>
						<split pos="right">
							<output> 0.03603548 </output>
						</split>
					</split>
				</split>
			</split>
			<split pos="right">
				<output> 0.3700821 </output>
			</split>
		</split>
	</tree>
	<tree id="43" weight="0.1">
		<split>
			<feature> 11 </feature>
			<threshold> 0.3125 </threshold>
			<split pos="left">
				<feature> 11 </feature>
				<threshold> 0.2109375 </threshold>
				<split pos="left">
					<feature> 11 </feature>
					<threshold> 0.20703125 </threshold>
					<split pos="left">
						<feature> 11 </feature>
						<threshold> 0.1484375 </threshold>
						<split pos="left">
							<output> -0.07501219 </output>
						</split>
						<split pos="right">
							<feature> 11 </feature>
							<threshold> 0.16796875 </threshold>
							<split pos="left">
								<feature> 11 </feature>
								<threshold> 0.1640625 </threshold>
								<split pos="left">
									<feature> 11 </feature>
									<threshold> 0.15625 </threshold>
									<split pos="left">
										<output> 0.13658847 </output>
									</split>
									<split pos="right">
										<output> -0.02702696 </output>
									</split>
								</split>
								<split pos="right">
									<output> 0.1762655 </output>
								</split>
							</split>
							<split pos="right">
								<feature> 11 </feature>
								<threshold> 0.18359375 </threshold>
								<split pos="left">
									<feature> 11 </feature>
									<threshold> 0.17578125 </threshold>
									<split pos="left">
										<output> -0.033417504 </output>
									</split>
									<split pos="right">
										<output> -0.0054670447 </output>
									</split>
								</split>
								<split pos="right">
									<output> 0.031580586 </output>
								</split>
							</split>
						</split>
					</split>
					<split pos="right">
						<output> -0.68207645 </output>
					</split>
				</split>
				<split pos="right">
					<output> 0.24334738 </output>
				</split>
			</split>
			<split pos="right">
				<output> 3.5413048 </output>
			</split>
		</split>
	</tree>
	<tree id="44" weight="0.1">
		<split>
			<feature> 11 </feature>
			<threshold> 0.20703125 </threshold>
			<split pos="left">
				<feature> 11 </feature>
				<threshold> 0.1484375 </threshold>
				<split pos="left">
					<output> -0.10431359 </output>
				</split>
				<split pos="right">
					<feature> 11 </feature>
					<threshold> 0.16796875 </threshold>
					<split pos="left">
						<feature> 11 </feature>
						<threshold> 0.1640625 </threshold>
						<split pos="left">
							<feature> 11 </feature>
							<threshold> 0.16015625 </threshold>
							<split pos="left">
								<output> 0.03617301 </output>
							</split>
							<split pos="right">
								<output> 0.0820653 </output>
							</split>
						</split>
						<split pos="right">
							<output> 0.15664166 </output>
						</split>
					</split>
					<split pos="right">
						<feature> 11 </feature>
						<threshold> 0.1953125 </threshold>
						<split pos="left">
							<feature> 11 </feature>
							<threshold> 0.17578125 </threshold>
							<split pos="left">
								<output> -0.032517176 </output>
							</split>
							<split pos="right">
								<feature> 11 </feature>
								<threshold> 0.19140625 </threshold>
								<split pos="left">
									<feature> 11 </feature>
									<threshold> 0.18359375 </threshold>
									<split pos="left">
										<output> -0.005999623 </output>
									</split>
									<split pos="right">
										<output> 0.015819278 </output>
									</split>
								</split>
								<split pos="right">
									<output> -0.49774376 </output>
								</split>
							</split>
						</split>
						<split pos="right">
							<output> 0.78128344 </output>
						</split>
					</split>
				</split>
			</split>
			<split pos="right">
				<output> 0.34587795 </output>
			</split>
		</split>
	</tree>
	<tree id="45" weight="0.1">
		<split>
			<feature> 11 </feature>
			<threshold> 0.20703125 </threshold>
			<split pos="left">
				<feature> 11 </feature>
				<threshold> 0.140625 </threshold>
				<split pos="left">
					<output> -0.1202444 </output>
				</split>
				<split pos="right">
					<feature> 11 </feature>
					<threshold> 0.203125 </threshold>
					<split pos="left">
						<feature> 11 </feature>
						<threshold> 0.1953125 </threshold>
						<split pos="left">
							<feature> 11 </feature>
							<threshold> 0.16796875 </threshold>
							<split pos="left">
								<feature> 11 </feature>
								<threshold> 0.1640625 </threshold>
								<split pos="left">
									<feature> 11 </feature>
									<threshold> 0.16015625 </threshold>
									<split pos="left">
										<output> 0.012012028 </output>
									</split>
									<split pos="right">
										<output> 0.068806134 </output>
									</split>
								</split>
								<split pos="right">
									<output> 0.13645631 </output>
								</split>
							</split>
							<split pos="right">
								<feature> 11 </feature>
								<threshold> 0.17578125 </threshold>
								<split pos="left">
									<output> -0.038022026 </output>
								</split>
								<split pos="right">
									<feature> 11 </feature>
									<threshold> 0.19140625 </threshold>
									<split pos="left">
										<output> 0.003279032 </output>
									</split>
									<split pos="right">
										<output> -0.45232 </output>
									</split>
								</split>
							</split>
						</split>
						<split pos="right">
							<output> 1.932 </output>
						</split>
					</split>
					<split pos="right">
						<output> -0.8529184 </output>
					</split>
				</split>
			</split>
			<split pos="right">
				<output> 0.33449882 </output>
			</split>
		</split>
	</tree>
	<tree id="46" weight="0.1">
		<split>
			<feature> 11 </feature>
			<threshold> 0.1953125 </threshold>
			<split pos="left">
				<feature> 11 </feature>
				<threshold> 0.15234375 </threshold>
				<split pos="left">
					<output> 0.016691381 </output>
				</split>
				<split pos="right">
					<feature> 11 </feature>
					<threshold> 0.16796875 </threshold>
					<split pos="left">
						<feature> 11 </feature>
						<threshold> 0.1640625 </threshold>
						<split pos="left">
							<output> 0.14305477 </output>
						</split>
						<split pos="right">
							<output> 0.120004706 </output>
						</split>
					</split>
					<split pos="right">
						<feature> 11 </feature>
						<threshold> 0.1875 </threshold>
						<split pos="left">
							<feature> 11 </feature>
							<threshold> 0.17578125 </threshold>
							<split pos="left">
								<feature> 11 </feature>
								<threshold> 0.171875 </threshold>
								<split pos="left">
									<output> -0.044269063 </output>
								</split>
								<split pos="right">
									<output> -0.038210478 </output>
								</split>
							</split>
							<split pos="right">
								<feature> 11 </feature>
								<threshold> 0.18359375 </threshold>
								<split pos="left">
									<output> -0.010753568 </output>
								</split>
								<split pos="right">
									<output> 0.0029525533 </output>
								</split>
							</split>
						</split>
						<split pos="right">
							<output> 1.0168002 </output>
						</split>
					</split>
				</split>
			</split>
			<split pos="right">
				<feature> 11 </feature>
				<threshold> 0.203125 </threshold>
				<split pos="left">
					<output> -1.9357059 </output>
				</split>
				<split pos="right">
					<output> 0.009290116 </output>
				</split>
			</split>
		</split>
	</tree>
	<tree id="47" weight="0.1">
		<split>
			<feature> 11 </feature>
			<threshold> 0.328125 </threshold>
			<split pos="left">
				<feature> 11 </feature>
				<threshold> 0.25390625 </threshold>
				<split pos="left">
					<feature> 11 </feature>
					<threshold> 0.21484375 </threshold>
					<split pos="left">
						<feature> 11 </feature>
						<threshold> 0.20703125 </threshold>
						<split pos="left">
							<feature> 11 </feature>
							<threshold> 0.0 </threshold>
							<split pos="left">
								<output> 0.42472348 </output>
							</split>
							<split pos="right">
								<feature> 11 </feature>
								<threshold> 0.12109375 </threshold>
								<split pos="left">
									<output> -0.55203766 </output>
								</split>
								<split pos="right">
									<feature> 11 </feature>
									<threshold> 0.13671875 </threshold>
									<split pos="left">
										<output> -0.0593806 </output>
									</split>
									<split pos="right">
										<feature> 11 </feature>
										<threshold> 0.1953125 </threshold>
										<split pos="left">
											<feature> 11 </feature>
											<threshold> 0.16796875 </threshold>
											<split pos="left">
												<output> 0.029160373 </output>
											</split>
											<split pos="right">
												<output> -0.01187284 </output>
											</split>
										</split>
										<split pos="right">
											<output> 0.75596917 </output>
										</split>
									</split>
								</split>
							</split>
						</split>
						<split pos="right">
							<output> -0.459385 </output>
						</split>
					</split>
					<split pos="right">
						<output> 0.13971286 </output>
					</split>
				</split>
				<split pos="right">
					<output> 0.8417752 </output>
				</split>
			</split>
			<split pos="right">
				<output> -2.8170917 </output>
			</split>
		</split>
	</tree>
	<tree id="48" weight="0.1">
		<split>
			<feature> 11 </feature>
			<threshold> 0.25390625 </threshold>
			<split pos="left">
				<feature> 11 </feature>
				<threshold> 0.20703125 </threshold>
				<split pos="left">
					<feature> 11 </feature>
					<threshold> 0.140625 </threshold>
					<split pos="left">
						<output> -0.101244524 </output>
					</split>
					<split pos="right">
						<feature> 11 </feature>
						<threshold> 0.203125 </threshold>
						<split pos="left">
							<feature> 11 </feature>
							<threshold> 0.1953125 </threshold>
							<split pos="left">
								<feature> 11 </feature>
								<threshold> 0.16796875 </threshold>
								<split pos="left">
									<feature> 11 </feature>
									<threshold> 0.1640625 </threshold>
									<split pos="left">
										<output> 0.009555415 </output>
									</split>
									<split pos="right">
										<output> 0.1039064 </output>
									</split>
								</split>
								<split pos="right">
									<feature> 11 </feature>
									<threshold> 0.19140625 </threshold>
									<split pos="left">
										<feature> 11 </feature>
										<threshold> 0.18359375 </threshold>
										<split pos="left">
											<output> -0.020630565 </output>
										</split>
										<split pos="right">
											<output> 0.014555131 </output>
										</split>
									</split>
									<split pos="right">
										<output> -0.64677167 </output>
									</split>
								</split>
							</split>
							<split pos="right">
								<output> 1.633517 </output>
							</split>
						</split>
						<split pos="right">
							<output> -1.0660828 </output>
						</split>
					</split>
				</split>
				<split pos="right">
					<output> 0.29218897 </output>
				</split>
			</split>
			<split pos="right">
				<output> 0.79003334 </output>
			</split>
		</split>
	</tree>
	<tree id="49" weight="0.1">
		<split>
			<feature> 11 </feature>
			<threshold> 0.25390625 </threshold>
			<split pos="left">
				<feature> 11 </feature>
				<threshold> 0.1953125 </threshold>
				<split pos="left">
					<feature> 11 </feature>
					<threshold> 0.15234375 </threshold>
					<split pos="left">
						<output> -0.027452983 </output>
					</split>
					<split pos="right">
						<feature> 11 </feature>
						<threshold> 0.16796875 </threshold>
						<split pos="left">
							<feature> 11 </feature>
							<threshold> 0.15625 </threshold>
							<split pos="left">
								<output> 0.20725161 </output>
							</split>
							<split pos="right">
								<feature> 11 </feature>
								<threshold> 0.16015625 </threshold>
								<split pos="left">
									<output> 0.31604782 </output>
								</split>
								<split pos="right">
									<output> 0.06389968 </output>
								</split>
							</split>
						</split>
						<split pos="right">
							<feature> 11 </feature>
							<threshold> 0.19140625 </threshold>
							<split pos="left">
								<feature> 11 </feature>
								<threshold> 0.18359375 </threshold>
								<split pos="left">
									<feature> 11 </feature>
									<threshold> 0.17578125 </threshold>
									<split pos="left">
										<output> -0.032280535 </output>
									</split>
									<split pos="right">
										<output> -0.007102739 </output>
									</split>
								</split>
								<split pos="right">
									<output> 0.013122651 </output>
								</split>
							</split>
							<split pos="right">
								<output> 1.8183824 </output>
							</split>
						</split>
					</split>
				</split>
				<split pos="right">
					<output> -0.5541558 </output>
				</split>
			</split>
			<split pos="right">
				<output> 0.76220524 </output>
			</split>
		</split>
	</tree>
	<tree id="50" weight="0.1">
		<split>
			<feature> 11 </feature>
			<threshold> 0.203125 </threshold>
			<split pos="left">
				<feature> 11 </feature>
				<threshold> 0.1953125 </threshold>
				<split pos="left">
					<feature> 11 </feature>
					<threshold> 0.19140625 </threshold>
					<split pos="left">
						<feature> 11 </feature>
						<threshold> 0.15234375 </threshold>
						<split pos="left">
							<output> -0.007259147 </output>
						</split>
						<split pos="right">
							<feature> 11 </feature>
							<threshold> 0.16796875 </threshold>
							<split pos="left">
								<feature> 11 </feature>
								<threshold> 0.1640625 </threshold>
								<split pos="left">
									<output> 0.12577887 </output>
								</split>
								<split pos="right">
									<output> 0.082555614 </output>
								</split>
							</split>
							<split pos="right">
								<feature> 11 </feature>
								<threshold> 0.18359375 </threshold>
								<split pos="left">
									<feature> 11 </feature>
									<threshold> 0.17578125 </threshold>
									<split pos="left">
										<feature> 11 </feature>
										<threshold> 0.171875 </threshold>
										<split pos="left">
											<output> -0.035666652 </output>
										</split>
										<split pos="right">
											<output> -0.023110708 </output>
										</split>
									</split>
									<split pos="right">
										<output> -0.0053126453 </output>
									</split>
								</split>
								<split pos="right">
									<output> 0.01531415 </output>
								</split>
							</split>
						</split>
					</split>
					<split pos="right">
						<output> -1.8504561 </output>
					</split>
				</split>
				<split pos="right">
					<output> -1.8174686 </output>
				</split>
			</split>
			<split pos="right">
				<output> 0.46551678 </output>
			</split>
		</split>
	</tree>
</ensemble>
