## LambdaMART
## No. of trees = 1000
## No. of leaves = 10
## No. of threshold candidates = 256
## Learning rate = 0.1
## Stop early = 100

<ensemble>
	<tree id="1" weight="0.1">
		<split>
			<feature> 1 </feature>
			<threshold> 0.093513235 </threshold>
			<split pos="left">
				<feature> 1 </feature>
				<threshold> 0.06522998 </threshold>
				<split pos="left">
					<feature> 1 </feature>
					<threshold> 0.04502766 </threshold>
					<split pos="left">
						<output> -1.7249426 </output>
					</split>
					<split pos="right">
						<output> -1.2188894 </output>
					</split>
				</split>
				<split pos="right">
					<feature> 11 </feature>
					<threshold> 0.1328125 </threshold>
					<split pos="left">
						<output> -1.0193267 </output>
					</split>
					<split pos="right">
						<feature> 4 </feature>
						<threshold> 0.390625 </threshold>
						<split pos="left">
							<output> -0.6539995 </output>
						</split>
						<split pos="right">
							<output> -0.053346306 </output>
						</split>
					</split>
				</split>
			</split>
			<split pos="right">
				<feature> 1 </feature>
				<threshold> 0.13795835 </threshold>
				<split pos="left">
					<feature> 11 </feature>
					<threshold> 0.1328125 </threshold>
					<split pos="left">
						<output> -0.35750833 </output>
					</split>
					<split pos="right">
						<feature> 4 </feature>
						<threshold> 0.38671875 </threshold>
						<split pos="left">
							<output> -0.042567927 </output>
						</split>
						<split pos="right">
							<feature> 5 </feature>
							<threshold> 0.265625 </threshold>
							<split pos="left">
								<output> 0.5014459 </output>
							</split>
							<split pos="right">
								<output> 0.9837092 </output>
							</split>
						</split>
					</split>
				</split>
				<split pos="right">
					<output> 1.3581667 </output>
				</split>
			</split>
		</split>
	</tree>
	<tree id="2" weight="0.1">
		<split>
			<feature> 1 </feature>
			<threshold> 0.13795835 </threshold>
			<split pos="left">
				<output> -1.4050616 </output>
			</split>
			<split pos="right">
				<feature> 11 </feature>
				<threshold> 0.15625 </threshold>
				<split pos="left">
					<feature> 1 </feature>
					<threshold> 0.17432253 </threshold>
					<split pos="left">
						<feature> 4 </feature>
						<threshold> 0.38671875 </threshold>
						<split pos="left">
							<output> 0.3595716 </output>
						</split>
						<split pos="right">
							<feature> 3 </feature>
							<threshold> 0.3125 </threshold>
							<split pos="left">
								<output> 0.71090657 </output>
							</split>
							<split pos="right">
								<feature> 10 </feature>
								<threshold> 0.3203125 </threshold>
								<split pos="left">
									<output> 0.92845535 </output>
								</split>
								<split pos="right">
									<output> 1.1813833 </output>
								</split>
							</split>
						</split>
					</split>
					<split pos="right">
						<feature> 11 </feature>
						<threshold> 0.1171875 </threshold>
						<split pos="left">
							<output> 1.3846452 </output>
						</split>
						<split pos="right">
							<feature> 11 </feature>
							<threshold> 0.14453125 </threshold>
							<split pos="left">
								<feature> 9 </feature>
								<threshold> 0.1640625 </threshold>
								<split pos="left">
									<output> 1.6243861 </output>
								</split>
								<split pos="right">
									<output> 1.5981803 </output>
								</split>
							</split>
							<split pos="right">
								<output> 1.509347 </output>
							</split>
						</split>
					</split>
				</split>
				<split pos="right">
					<output> 1.3776392 </output>
				</split>
			</split>
		</split>
	</tree>
	<tree id="3" weight="0.1">
		<split>
			<feature> 1 </feature>
			<threshold> 0.17432253 </threshold>
			<split pos="left">
				<feature> 1 </feature>
				<threshold> 0.13795835 </threshold>
				<split pos="left">
					<output> -1.4459506 </output>
				</split>
				<split pos="right">
					<output> 0.77619725 </output>
				</split>
			</split>
			<split pos="right">
				<feature> 11 </feature>
				<threshold> 0.14453125 </threshold>
				<split pos="left">
					<feature> 11 </feature>
					<threshold> 0.1171875 </threshold>
					<split pos="left">
						<output> 1.3452798 </output>
					</split>
					<split pos="right">
						<feature> 9 </feature>
						<threshold> 0.1640625 </threshold>
						<split pos="left">
							<feature> 1 </feature>
							<threshold> 0.18240346 </threshold>
							<split pos="left">
								<output> 0.96094537 </output>
							</split>
							<split pos="right">
								<feature> 5 </feature>
								<threshold> 0.296875 </threshold>
								<split pos="left">
									<feature> 8 </feature>
									<threshold> 0.31640625 </threshold>
									<split pos="left">
										<output> 1.3747756 </output>
									</split>
									<split pos="right">
										<feature> 6 </feature>
										<threshold> 0.3828125 </threshold>
										<split pos="left">
											<output> 1.4894607 </output>
										</split>
										<split pos="right">
											<output> 1.4991603 </output>
										</split>
									</split>
								</split>
								<split pos="right">
									<output> 1.4736717 </output>
								</split>
							</split>
						</split>
						<split pos="right">
							<output> 1.3998718 </output>
						</split>
					</split>
				</split>
				<split pos="right">
					<output> 1.4472605 </output>
				</split>
			</split>
		</split>
	</tree>
	<tree id="4" weight="0.1">
		<split>
			<feature> 1 </feature>
			<threshold> 0.17432253 </threshold>
			<split pos="left">
				<output> -0.9699408 </output>
			</split>
			<split pos="right">
				<feature> 11 </feature>
				<threshold> 0.14453125 </threshold>
				<split pos="left">
					<feature> 11 </feature>
					<threshold> 0.1171875 </threshold>
					<split pos="left">
						<output> 1.0992292 </output>
					</split>
					<split pos="right">
						<feature> 1 </feature>
						<threshold> 0.18240346 </threshold>
						<split pos="left">
							<output> 1.0552344 </output>
						</split>
						<split pos="right">
							<feature> 9 </feature>
							<threshold> 0.1640625 </threshold>
							<split pos="left">
								<feature> 8 </feature>
								<threshold> 0.31640625 </threshold>
								<split pos="left">
									<output> 1.2248957 </output>
								</split>
								<split pos="right">
									<feature> 5 </feature>
									<threshold> 0.29296875 </threshold>
									<split pos="left">
										<feature> 10 </feature>
										<threshold> 0.32421875 </threshold>
										<split pos="left">
											<output> 1.1749947 </output>
										</split>
										<split pos="right">
											<output> 1.3582151 </output>
										</split>
									</split>
									<split pos="right">
										<output> 1.3702344 </output>
									</split>
								</split>
							</split>
							<split pos="right">
								<output> 1.2791904 </output>
							</split>
						</split>
					</split>
				</split>
				<split pos="right">
					<feature> 11 </feature>
					<threshold> 0.15625 </threshold>
					<split pos="left">
						<output> 1.2533535 </output>
					</split>
					<split pos="right">
						<output> 1.3605431 </output>
					</split>
				</split>
			</split>
		</split>
	</tree>
	<tree id="5" weight="0.1">
		<split>
			<feature> 1 </feature>
			<threshold> 0.17432253 </threshold>
			<split pos="left">
				<feature> 1 </feature>
				<threshold> 0.13795835 </threshold>
				<split pos="left">
					<output> -1.2415928 </output>
				</split>
				<split pos="right">
					<output> 0.5655033 </output>
				</split>
			</split>
			<split pos="right">
				<feature> 11 </feature>
				<threshold> 0.14453125 </threshold>
				<split pos="left">
					<feature> 1 </feature>
					<threshold> 0.18240346 </threshold>
					<split pos="left">
						<output> 0.90730083 </output>
					</split>
					<split pos="right">
						<feature> 11 </feature>
						<threshold> 0.1171875 </threshold>
						<split pos="left">
							<output> 1.1682365 </output>
						</split>
						<split pos="right">
							<feature> 8 </feature>
							<threshold> 0.31640625 </threshold>
							<split pos="left">
								<output> 1.1235362 </output>
							</split>
							<split pos="right">
								<feature> 9 </feature>
								<threshold> 0.1640625 </threshold>
								<split pos="left">
									<feature> 5 </feature>
									<threshold> 0.29296875 </threshold>
									<split pos="left">
										<output> 1.2003379 </output>
									</split>
									<split pos="right">
										<output> 1.2477617 </output>
									</split>
								</split>
								<split pos="right">
									<output> 1.2065741 </output>
								</split>
							</split>
						</split>
					</split>
				</split>
				<split pos="right">
					<feature> 11 </feature>
					<threshold> 0.15625 </threshold>
					<split pos="left">
						<output> 1.1341677 </output>
					</split>
					<split pos="right">
						<output> 1.251918 </output>
					</split>
				</split>
			</split>
		</split>
	</tree>
	<tree id="6" weight="0.1">
		<split>
			<feature> 1 </feature>
			<threshold> 0.17432253 </threshold>
			<split pos="left">
				<feature> 1 </feature>
				<threshold> 0.13795835 </threshold>
				<split pos="left">
					<output> -1.1522071 </output>
				</split>
				<split pos="right">
					<output> 0.46650067 </output>
				</split>
			</split>
			<split pos="right">
				<feature> 11 </feature>
				<threshold> 0.14453125 </threshold>
				<split pos="left">
					<feature> 8 </feature>
					<threshold> 0.31640625 </threshold>
					<split pos="left">
						<output> 1.0563577 </output>
					</split>
					<split pos="right">
						<feature> 1 </feature>
						<threshold> 0.18240346 </threshold>
						<split pos="left">
							<output> 0.9367537 </output>
						</split>
						<split pos="right">
							<feature> 9 </feature>
							<threshold> 0.1640625 </threshold>
							<split pos="left">
								<feature> 10 </feature>
								<threshold> 0.32421875 </threshold>
								<split pos="left">
									<output> 0.9791567 </output>
								</split>
								<split pos="right">
									<output> 1.1608139 </output>
								</split>
							</split>
							<split pos="right">
								<output> 1.1092192 </output>
							</split>
						</split>
					</split>
				</split>
				<split pos="right">
					<feature> 11 </feature>
					<threshold> 0.18359375 </threshold>
					<split pos="left">
						<feature> 11 </feature>
						<threshold> 0.15625 </threshold>
						<split pos="left">
							<output> 1.0820795 </output>
						</split>
						<split pos="right">
							<output> 1.081643 </output>
						</split>
					</split>
					<split pos="right">
						<output> 1.1969435 </output>
					</split>
				</split>
			</split>
		</split>
	</tree>
	<tree id="7" weight="0.1">
		<split>
			<feature> 1 </feature>
			<threshold> 0.17432253 </threshold>
			<split pos="left">
				<feature> 1 </feature>
				<threshold> 0.13795835 </threshold>
				<split pos="left">
					<output> -1.0822225 </output>
				</split>
				<split pos="right">
					<output> 0.37890622 </output>
				</split>
			</split>
			<split pos="right">
				<feature> 11 </feature>
				<threshold> 0.14453125 </threshold>
				<split pos="left">
					<feature> 8 </feature>
					<threshold> 0.31640625 </threshold>
					<split pos="left">
						<output> 0.95382196 </output>
					</split>
					<split pos="right">
						<feature> 1 </feature>
						<threshold> 0.18240346 </threshold>
						<split pos="left">
							<output> 0.8259504 </output>
						</split>
						<split pos="right">
							<feature> 10 </feature>
							<threshold> 0.32421875 </threshold>
							<split pos="left">
								<output> 1.0116881 </output>
							</split>
							<split pos="right">
								<feature> 9 </feature>
								<threshold> 0.1640625 </threshold>
								<split pos="left">
									<output> 1.0893948 </output>
								</split>
								<split pos="right">
									<output> 1.0352902 </output>
								</split>
							</split>
						</split>
					</split>
				</split>
				<split pos="right">
					<feature> 11 </feature>
					<threshold> 0.171875 </threshold>
					<split pos="left">
						<feature> 9 </feature>
						<threshold> 0.1640625 </threshold>
						<split pos="left">
							<output> 0.981135 </output>
						</split>
						<split pos="right">
							<output> 1.0302736 </output>
						</split>
					</split>
					<split pos="right">
						<output> 1.1088854 </output>
					</split>
				</split>
			</split>
		</split>
	</tree>
	<tree id="8" weight="0.1">
		<split>
			<feature> 1 </feature>
			<threshold> 0.17432253 </threshold>
			<split pos="left">
				<output> -0.70033735 </output>
			</split>
			<split pos="right">
				<feature> 11 </feature>
				<threshold> 0.14453125 </threshold>
				<split pos="left">
					<feature> 8 </feature>
					<threshold> 0.31640625 </threshold>
					<split pos="left">
						<output> 0.8615147 </output>
					</split>
					<split pos="right">
						<feature> 1 </feature>
						<threshold> 0.18240346 </threshold>
						<split pos="left">
							<output> 0.740188 </output>
						</split>
						<split pos="right">
							<feature> 10 </feature>
							<threshold> 0.32421875 </threshold>
							<split pos="left">
								<output> 0.9677978 </output>
							</split>
							<split pos="right">
								<feature> 9 </feature>
								<threshold> 0.1640625 </threshold>
								<split pos="left">
									<output> 1.0277011 </output>
								</split>
								<split pos="right">
									<output> 0.96454304 </output>
								</split>
							</split>
						</split>
					</split>
				</split>
				<split pos="right">
					<feature> 11 </feature>
					<threshold> 0.2109375 </threshold>
					<split pos="left">
						<feature> 7 </feature>
						<threshold> 0.026603492 </threshold>
						<split pos="left">
							<feature> 10 </feature>
							<threshold> 0.3203125 </threshold>
							<split pos="left">
								<output> 0.764397 </output>
							</split>
							<split pos="right">
								<output> 1.0356287 </output>
							</split>
						</split>
						<split pos="right">
							<output> 1.1076822 </output>
						</split>
					</split>
					<split pos="right">
						<output> 1.1980151 </output>
					</split>
				</split>
			</split>
		</split>
	</tree>
	<tree id="9" weight="0.1">
		<split>
			<feature> 1 </feature>
			<threshold> 0.17432253 </threshold>
			<split pos="left">
				<feature> 1 </feature>
				<threshold> 0.13795835 </threshold>
				<split pos="left">
					<output> -0.9890799 </output>
				</split>
				<split pos="right">
					<output> 0.3621229 </output>
				</split>
			</split>
			<split pos="right">
				<feature> 11 </feature>
				<threshold> 0.14453125 </threshold>
				<split pos="left">
					<feature> 8 </feature>
					<threshold> 0.31640625 </threshold>
					<split pos="left">
						<output> 0.7847482 </output>
					</split>
					<split pos="right">
						<feature> 1 </feature>
						<threshold> 0.18240346 </threshold>
						<split pos="left">
							<output> 0.6678125 </output>
						</split>
						<split pos="right">
							<feature> 10 </feature>
							<threshold> 0.32421875 </threshold>
							<split pos="left">
								<output> 0.8847796 </output>
							</split>
							<split pos="right">
								<feature> 9 </feature>
								<threshold> 0.1640625 </threshold>
								<split pos="left">
									<output> 0.97303474 </output>
								</split>
								<split pos="right">
									<output> 0.92071205 </output>
								</split>
							</split>
						</split>
					</split>
				</split>
				<split pos="right">
					<feature> 10 </feature>
					<threshold> 0.3203125 </threshold>
					<split pos="left">
						<output> 0.82798296 </output>
					</split>
					<split pos="right">
						<feature> 4 </feature>
						<threshold> 0.41796875 </threshold>
						<split pos="left">
							<output> 0.9705851 </output>
						</split>
						<split pos="right">
							<output> 1.0741802 </output>
						</split>
					</split>
				</split>
			</split>
		</split>
	</tree>
	<tree id="10" weight="0.1">
		<split>
			<feature> 1 </feature>
			<threshold> 0.17432253 </threshold>
			<split pos="left">
				<feature> 1 </feature>
				<threshold> 0.10563463 </threshold>
				<split pos="left">
					<output> -1.0184406 </output>
				</split>
				<split pos="right">
					<output> -0.049366295 </output>
				</split>
			</split>
			<split pos="right">
				<feature> 10 </feature>
				<threshold> 0.3203125 </threshold>
				<split pos="left">
					<output> 0.7517204 </output>
				</split>
				<split pos="right">
					<feature> 11 </feature>
					<threshold> 0.14453125 </threshold>
					<split pos="left">
						<feature> 8 </feature>
						<threshold> 0.31640625 </threshold>
						<split pos="left">
							<output> 0.80505913 </output>
						</split>
						<split pos="right">
							<feature> 1 </feature>
							<threshold> 0.18240346 </threshold>
							<split pos="left">
								<output> 0.6635307 </output>
							</split>
							<split pos="right">
								<output> 0.91953355 </output>
							</split>
						</split>
					</split>
					<split pos="right">
						<feature> 10 </feature>
						<threshold> 0.359375 </threshold>
						<split pos="left">
							<feature> 7 </feature>
							<threshold> 0.02240294 </threshold>
							<split pos="left">
								<feature> 1 </feature>
								<threshold> 0.19856532 </threshold>
								<split pos="left">
									<output> 0.6359973 </output>
								</split>
								<split pos="right">
									<output> 1.0523162 </output>
								</split>
							</split>
							<split pos="right">
								<output> 1.0306765 </output>
							</split>
						</split>
						<split pos="right">
							<output> 0.9951162 </output>
						</split>
					</split>
				</split>
			</split>
		</split>
	</tree>
	<tree id="11" weight="0.1">
		<split>
			<feature> 1 </feature>
			<threshold> 0.18240346 </threshold>
			<split pos="left">
				<feature> 1 </feature>
				<threshold> 0.13795835 </threshold>
				<split pos="left">
					<output> -0.9085904 </output>
				</split>
				<split pos="right">
					<feature> 11 </feature>
					<threshold> 0.15625 </threshold>
					<split pos="left">
						<output> -0.015261362 </output>
					</split>
					<split pos="right">
						<output> 0.6560521 </output>
					</split>
				</split>
			</split>
			<split pos="right">
				<feature> 10 </feature>
				<threshold> 0.3203125 </threshold>
				<split pos="left">
					<output> 0.757096 </output>
				</split>
				<split pos="right">
					<feature> 11 </feature>
					<threshold> 0.1484375 </threshold>
					<split pos="left">
						<feature> 8 </feature>
						<threshold> 0.31640625 </threshold>
						<split pos="left">
							<output> 0.8357533 </output>
						</split>
						<split pos="right">
							<feature> 9 </feature>
							<threshold> 0.1640625 </threshold>
							<split pos="left">
								<feature> 11 </feature>
								<threshold> 0.140625 </threshold>
								<split pos="left">
									<output> 0.9238416 </output>
								</split>
								<split pos="right">
									<output> 0.79593694 </output>
								</split>
							</split>
							<split pos="right">
								<output> 0.871 </output>
							</split>
						</split>
					</split>
					<split pos="right">
						<feature> 10 </feature>
						<threshold> 0.359375 </threshold>
						<split pos="left">
							<output> 0.96536094 </output>
						</split>
						<split pos="right">
							<output> 1.0239029 </output>
						</split>
					</split>
				</split>
			</split>
		</split>
	</tree>
	<tree id="12" weight="0.1">
		<split>
			<feature> 1 </feature>
			<threshold> 0.18644392 </threshold>
			<split pos="left">
				<feature> 1 </feature>
				<threshold> 0.109675094 </threshold>
				<split pos="left">
					<output> -0.9696858 </output>
				</split>
				<split pos="right">
					<feature> 11 </feature>
					<threshold> 0.15625 </threshold>
					<split pos="left">
						<feature> 4 </feature>
						<threshold> 0.38671875 </threshold>
						<split pos="left">
							<output> -0.6172955 </output>
						</split>
						<split pos="right">
							<feature> 1 </feature>
							<threshold> 0.15816067 </threshold>
							<split pos="left">
								<output> -0.1235978 </output>
							</split>
							<split pos="right">
								<output> 0.3908735 </output>
							</split>
						</split>
					</split>
					<split pos="right">
						<output> 0.48106107 </output>
					</split>
				</split>
			</split>
			<split pos="right">
				<feature> 10 </feature>
				<threshold> 0.3203125 </threshold>
				<split pos="left">
					<output> 0.76889694 </output>
				</split>
				<split pos="right">
					<feature> 11 </feature>
					<threshold> 0.14453125 </threshold>
					<split pos="left">
						<feature> 8 </feature>
						<threshold> 0.31640625 </threshold>
						<split pos="left">
							<output> 0.81802386 </output>
						</split>
						<split pos="right">
							<output> 0.90104264 </output>
						</split>
					</split>
					<split pos="right">
						<feature> 10 </feature>
						<threshold> 0.3515625 </threshold>
						<split pos="left">
							<output> 0.93812495 </output>
						</split>
						<split pos="right">
							<output> 0.99251795 </output>
						</split>
					</split>
				</split>
			</split>
		</split>
	</tree>
	<tree id="13" weight="0.1">
		<split>
			<feature> 1 </feature>
			<threshold> 0.19048439 </threshold>
			<split pos="left">
				<feature> 1 </feature>
				<threshold> 0.11371556 </threshold>
				<split pos="left">
					<output> -0.93651783 </output>
				</split>
				<split pos="right">
					<feature> 4 </feature>
					<threshold> 0.38671875 </threshold>
					<split pos="left">
						<output> -0.41801172 </output>
					</split>
					<split pos="right">
						<feature> 1 </feature>
						<threshold> 0.13795835 </threshold>
						<split pos="left">
							<output> -0.12593016 </output>
						</split>
						<split pos="right">
							<feature> 3 </feature>
							<threshold> 0.328125 </threshold>
							<split pos="left">
								<output> 0.19402696 </output>
							</split>
							<split pos="right">
								<output> 0.67994004 </output>
							</split>
						</split>
					</split>
				</split>
			</split>
			<split pos="right">
				<feature> 10 </feature>
				<threshold> 0.3203125 </threshold>
				<split pos="left">
					<output> 0.75831264 </output>
				</split>
				<split pos="right">
					<feature> 11 </feature>
					<threshold> 0.16015625 </threshold>
					<split pos="left">
						<feature> 8 </feature>
						<threshold> 0.31640625 </threshold>
						<split pos="left">
							<output> 0.7776639 </output>
						</split>
						<split pos="right">
							<feature> 9 </feature>
							<threshold> 0.1640625 </threshold>
							<split pos="left">
								<output> 0.92906165 </output>
							</split>
							<split pos="right">
								<output> 0.8661622 </output>
							</split>
						</split>
					</split>
					<split pos="right">
						<output> 0.99968773 </output>
					</split>
				</split>
			</split>
		</split>
	</tree>
	<tree id="14" weight="0.1">
		<split>
			<feature> 1 </feature>
			<threshold> 0.19452485 </threshold>
			<split pos="left">
				<feature> 1 </feature>
				<threshold> 0.12179649 </threshold>
				<split pos="left">
					<output> -0.87531406 </output>
				</split>
				<split pos="right">
					<feature> 4 </feature>
					<threshold> 0.38671875 </threshold>
					<split pos="left">
						<output> -0.41453397 </output>
					</split>
					<split pos="right">
						<feature> 1 </feature>
						<threshold> 0.18644392 </threshold>
						<split pos="left">
							<feature> 3 </feature>
							<threshold> 0.328125 </threshold>
							<split pos="left">
								<output> 0.012097045 </output>
							</split>
							<split pos="right">
								<output> 0.5789308 </output>
							</split>
						</split>
						<split pos="right">
							<output> 0.66370547 </output>
						</split>
					</split>
				</split>
			</split>
			<split pos="right">
				<feature> 10 </feature>
				<threshold> 0.3203125 </threshold>
				<split pos="left">
					<output> 0.73741853 </output>
				</split>
				<split pos="right">
					<feature> 11 </feature>
					<threshold> 0.1640625 </threshold>
					<split pos="left">
						<feature> 9 </feature>
						<threshold> 0.1640625 </threshold>
						<split pos="left">
							<feature> 8 </feature>
							<threshold> 0.31640625 </threshold>
							<split pos="left">
								<output> 0.737743 </output>
							</split>
							<split pos="right">
								<output> 0.92245114 </output>
							</split>
						</split>
						<split pos="right">
							<output> 0.8636288 </output>
						</split>
					</split>
					<split pos="right">
						<output> 0.98690045 </output>
					</split>
				</split>
			</split>
		</split>
	</tree>
	<tree id="15" weight="0.1">
		<split>
			<feature> 1 </feature>
			<threshold> 0.19452485 </threshold>
			<split pos="left">
				<feature> 1 </feature>
				<threshold> 0.12179649 </threshold>
				<split pos="left">
					<output> -0.8647688 </output>
				</split>
				<split pos="right">
					<feature> 4 </feature>
					<threshold> 0.38671875 </threshold>
					<split pos="left">
						<output> -0.42633945 </output>
					</split>
					<split pos="right">
						<feature> 3 </feature>
						<threshold> 0.328125 </threshold>
						<split pos="left">
							<output> 0.026482992 </output>
						</split>
						<split pos="right">
							<feature> 1 </feature>
							<threshold> 0.13795835 </threshold>
							<split pos="left">
								<output> 0.46848628 </output>
							</split>
							<split pos="right">
								<output> 0.595577 </output>
							</split>
						</split>
					</split>
				</split>
			</split>
			<split pos="right">
				<feature> 10 </feature>
				<threshold> 0.3203125 </threshold>
				<split pos="left">
					<output> 0.6747656 </output>
				</split>
				<split pos="right">
					<feature> 11 </feature>
					<threshold> 0.15625 </threshold>
					<split pos="left">
						<feature> 4 </feature>
						<threshold> 0.3515625 </threshold>
						<split pos="left">
							<output> -0.83729136 </output>
						</split>
						<split pos="right">
							<feature> 9 </feature>
							<threshold> 0.1640625 </threshold>
							<split pos="left">
								<output> 0.8983676 </output>
							</split>
							<split pos="right">
								<output> 0.847466 </output>
							</split>
						</split>
					</split>
					<split pos="right">
						<output> 0.8871923 </output>
					</split>
				</split>
			</split>
		</split>
	</tree>
	<tree id="16" weight="0.1">
		<split>
			<feature> 1 </feature>
			<threshold> 0.19452485 </threshold>
			<split pos="left">
				<feature> 1 </feature>
				<threshold> 0.12179649 </threshold>
				<split pos="left">
					<output> -0.83288485 </output>
				</split>
				<split pos="right">
					<feature> 3 </feature>
					<threshold> 0.32421875 </threshold>
					<split pos="left">
						<feature> 8 </feature>
						<threshold> 0.32421875 </threshold>
						<split pos="left">
							<output> -0.43742344 </output>
						</split>
						<split pos="right">
							<output> 0.046199143 </output>
						</split>
					</split>
					<split pos="right">
						<feature> 4 </feature>
						<threshold> 0.38671875 </threshold>
						<split pos="left">
							<output> -0.20556226 </output>
						</split>
						<split pos="right">
							<output> 0.5235934 </output>
						</split>
					</split>
				</split>
			</split>
			<split pos="right">
				<feature> 10 </feature>
				<threshold> 0.3203125 </threshold>
				<split pos="left">
					<output> 0.6266643 </output>
				</split>
				<split pos="right">
					<feature> 11 </feature>
					<threshold> 0.15625 </threshold>
					<split pos="left">
						<feature> 8 </feature>
						<threshold> 0.31640625 </threshold>
						<split pos="left">
							<output> 0.738176 </output>
						</split>
						<split pos="right">
							<output> 0.8508563 </output>
						</split>
					</split>
					<split pos="right">
						<feature> 10 </feature>
						<threshold> 0.375 </threshold>
						<split pos="left">
							<output> 0.8700096 </output>
						</split>
						<split pos="right">
							<output> 0.79443717 </output>
						</split>
					</split>
				</split>
			</split>
		</split>
	</tree>
	<tree id="17" weight="0.1">
		<split>
			<feature> 1 </feature>
			<threshold> 0.20260578 </threshold>
			<split pos="left">
				<feature> 1 </feature>
				<threshold> 0.15007974 </threshold>
				<split pos="left">
					<feature> 11 </feature>
					<threshold> 0.140625 </threshold>
					<split pos="left">
						<output> -0.8535942 </output>
					</split>
					<split pos="right">
						<output> -0.19390543 </output>
					</split>
				</split>
				<split pos="right">
					<feature> 4 </feature>
					<threshold> 0.38671875 </threshold>
					<split pos="left">
						<output> -0.24512693 </output>
					</split>
					<split pos="right">
						<feature> 1 </feature>
						<threshold> 0.18644392 </threshold>
						<split pos="left">
							<output> 0.39806852 </output>
						</split>
						<split pos="right">
							<output> 0.5961389 </output>
						</split>
					</split>
				</split>
			</split>
			<split pos="right">
				<feature> 10 </feature>
				<threshold> 0.3203125 </threshold>
				<split pos="left">
					<output> 0.7282566 </output>
				</split>
				<split pos="right">
					<feature> 11 </feature>
					<threshold> 0.14453125 </threshold>
					<split pos="left">
						<output> 0.8617165 </output>
					</split>
					<split pos="right">
						<feature> 4 </feature>
						<threshold> 0.42578125 </threshold>
						<split pos="left">
							<feature> 1 </feature>
							<threshold> 0.2349295 </threshold>
							<split pos="left">
								<output> 0.63776577 </output>
							</split>
							<split pos="right">
								<output> 1.0975167 </output>
							</split>
						</split>
						<split pos="right">
							<output> 0.8040965 </output>
						</split>
					</split>
				</split>
			</split>
		</split>
	</tree>
	<tree id="18" weight="0.1">
		<split>
			<feature> 1 </feature>
			<threshold> 0.20260578 </threshold>
			<split pos="left">
				<feature> 1 </feature>
				<threshold> 0.15007974 </threshold>
				<split pos="left">
					<feature> 1 </feature>
					<threshold> 0.085432306 </threshold>
					<split pos="left">
						<output> -0.9392574 </output>
					</split>
					<split pos="right">
						<output> -0.3228795 </output>
					</split>
				</split>
				<split pos="right">
					<feature> 3 </feature>
					<threshold> 0.32421875 </threshold>
					<split pos="left">
						<feature> 8 </feature>
						<threshold> 0.31640625 </threshold>
						<split pos="left">
							<output> -0.3020575 </output>
						</split>
						<split pos="right">
							<output> 0.14803177 </output>
						</split>
					</split>
					<split pos="right">
						<output> 0.5177331 </output>
					</split>
				</split>
			</split>
			<split pos="right">
				<feature> 10 </feature>
				<threshold> 0.3203125 </threshold>
				<split pos="left">
					<output> 0.6660157 </output>
				</split>
				<split pos="right">
					<feature> 4 </feature>
					<threshold> 0.421875 </threshold>
					<split pos="left">
						<feature> 1 </feature>
						<threshold> 0.2349295 </threshold>
						<split pos="left">
							<feature> 11 </feature>
							<threshold> 0.13671875 </threshold>
							<split pos="left">
								<output> 0.7871722 </output>
							</split>
							<split pos="right">
								<output> 0.6087729 </output>
							</split>
						</split>
						<split pos="right">
							<output> 1.0015193 </output>
						</split>
					</split>
					<split pos="right">
						<output> 0.8355717 </output>
					</split>
				</split>
			</split>
		</split>
	</tree>
	<tree id="19" weight="0.1">
		<split>
			<feature> 1 </feature>
			<threshold> 0.20260578 </threshold>
			<split pos="left">
				<feature> 1 </feature>
				<threshold> 0.15007974 </threshold>
				<split pos="left">
					<feature> 1 </feature>
					<threshold> 0.08139184 </threshold>
					<split pos="left">
						<output> -0.9429155 </output>
					</split>
					<split pos="right">
						<output> -0.35702053 </output>
					</split>
				</split>
				<split pos="right">
					<feature> 3 </feature>
					<threshold> 0.328125 </threshold>
					<split pos="left">
						<feature> 4 </feature>
						<threshold> 0.38671875 </threshold>
						<split pos="left">
							<output> -0.30268225 </output>
						</split>
						<split pos="right">
							<output> 0.12758821 </output>
						</split>
					</split>
					<split pos="right">
						<output> 0.4942164 </output>
					</split>
				</split>
			</split>
			<split pos="right">
				<feature> 10 </feature>
				<threshold> 0.3203125 </threshold>
				<split pos="left">
					<output> 0.63172245 </output>
				</split>
				<split pos="right">
					<feature> 1 </feature>
					<threshold> 0.2349295 </threshold>
					<split pos="left">
						<feature> 11 </feature>
						<threshold> 0.13671875 </threshold>
						<split pos="left">
							<output> 0.8083456 </output>
						</split>
						<split pos="right">
							<feature> 3 </feature>
							<threshold> 0.3046875 </threshold>
							<split pos="left">
								<output> 0.08185678 </output>
							</split>
							<split pos="right">
								<output> 0.83905673 </output>
							</split>
						</split>
					</split>
					<split pos="right">
						<output> 0.9791744 </output>
					</split>
				</split>
			</split>
		</split>
	</tree>
	<tree id="20" weight="0.1">
		<split>
			<feature> 1 </feature>
			<threshold> 0.21068671 </threshold>
			<split pos="left">
				<feature> 1 </feature>
				<threshold> 0.15007974 </threshold>
				<split pos="left">
					<output> -0.55645895 </output>
				</split>
				<split pos="right">
					<feature> 3 </feature>
					<threshold> 0.32421875 </threshold>
					<split pos="left">
						<feature> 4 </feature>
						<threshold> 0.38671875 </threshold>
						<split pos="left">
							<output> -0.3142257 </output>
						</split>
						<split pos="right">
							<feature> 11 </feature>
							<threshold> 0.1171875 </threshold>
							<split pos="left">
								<output> -2.8922238 </output>
							</split>
							<split pos="right">
								<feature> 8 </feature>
								<threshold> 0.31640625 </threshold>
								<split pos="left">
									<output> -0.14635046 </output>
								</split>
								<split pos="right">
									<output> 0.2848917 </output>
								</split>
							</split>
						</split>
					</split>
					<split pos="right">
						<feature> 9 </feature>
						<threshold> 0.13671875 </threshold>
						<split pos="left">
							<output> 0.060167804 </output>
						</split>
						<split pos="right">
							<output> 0.5746939 </output>
						</split>
					</split>
				</split>
			</split>
			<split pos="right">
				<feature> 10 </feature>
				<threshold> 0.3203125 </threshold>
				<split pos="left">
					<output> 0.6411233 </output>
				</split>
				<split pos="right">
					<feature> 11 </feature>
					<threshold> 0.15234375 </threshold>
					<split pos="left">
						<output> 0.9231206 </output>
					</split>
					<split pos="right">
						<output> 0.90556365 </output>
					</split>
				</split>
			</split>
		</split>
	</tree>
	<tree id="21" weight="0.1">
		<split>
			<feature> 1 </feature>
			<threshold> 0.21068671 </threshold>
			<split pos="left">
				<feature> 1 </feature>
				<threshold> 0.15007974 </threshold>
				<split pos="left">
					<feature> 11 </feature>
					<threshold> 0.14453125 </threshold>
					<split pos="left">
						<output> -0.7904829 </output>
					</split>
					<split pos="right">
						<output> -0.114236034 </output>
					</split>
				</split>
				<split pos="right">
					<feature> 4 </feature>
					<threshold> 0.38671875 </threshold>
					<split pos="left">
						<output> -0.17904983 </output>
					</split>
					<split pos="right">
						<feature> 3 </feature>
						<threshold> 0.328125 </threshold>
						<split pos="left">
							<feature> 10 </feature>
							<threshold> 0.3125 </threshold>
							<split pos="left">
								<output> -0.16329324 </output>
							</split>
							<split pos="right">
								<output> 0.25043648 </output>
							</split>
						</split>
						<split pos="right">
							<output> 0.5333576 </output>
						</split>
					</split>
				</split>
			</split>
			<split pos="right">
				<feature> 10 </feature>
				<threshold> 0.3203125 </threshold>
				<split pos="left">
					<output> 0.6258167 </output>
				</split>
				<split pos="right">
					<feature> 11 </feature>
					<threshold> 0.15234375 </threshold>
					<split pos="left">
						<output> 0.90410006 </output>
					</split>
					<split pos="right">
						<feature> 1 </feature>
						<threshold> 0.27533424 </threshold>
						<split pos="left">
							<output> 0.6680133 </output>
						</split>
						<split pos="right">
							<output> 1.1782433 </output>
						</split>
					</split>
				</split>
			</split>
		</split>
	</tree>
	<tree id="22" weight="0.1">
		<split>
			<feature> 1 </feature>
			<threshold> 0.21472718 </threshold>
			<split pos="left">
				<feature> 1 </feature>
				<threshold> 0.12179649 </threshold>
				<split pos="left">
					<output> -0.7583374 </output>
				</split>
				<split pos="right">
					<feature> 3 </feature>
					<threshold> 0.33203125 </threshold>
					<split pos="left">
						<feature> 8 </feature>
						<threshold> 0.31640625 </threshold>
						<split pos="left">
							<output> -0.30529058 </output>
						</split>
						<split pos="right">
							<feature> 11 </feature>
							<threshold> 0.13671875 </threshold>
							<split pos="left">
								<output> -0.40613523 </output>
							</split>
							<split pos="right">
								<output> 0.21172333 </output>
							</split>
						</split>
					</split>
					<split pos="right">
						<feature> 1 </feature>
						<threshold> 0.18644392 </threshold>
						<split pos="left">
							<feature> 9 </feature>
							<threshold> 0.140625 </threshold>
							<split pos="left">
								<output> 0.025247214 </output>
							</split>
							<split pos="right">
								<output> 0.5136485 </output>
							</split>
						</split>
						<split pos="right">
							<output> 0.6137932 </output>
						</split>
					</split>
				</split>
			</split>
			<split pos="right">
				<feature> 10 </feature>
				<threshold> 0.3203125 </threshold>
				<split pos="left">
					<output> 0.6614665 </output>
				</split>
				<split pos="right">
					<feature> 10 </feature>
					<threshold> 0.359375 </threshold>
					<split pos="left">
						<output> 0.8765341 </output>
					</split>
					<split pos="right">
						<output> 0.9216623 </output>
					</split>
				</split>
			</split>
		</split>
	</tree>
	<tree id="23" weight="0.1">
		<split>
			<feature> 1 </feature>
			<threshold> 0.21068671 </threshold>
			<split pos="left">
				<feature> 11 </feature>
				<threshold> 0.1484375 </threshold>
				<split pos="left">
					<feature> 1 </feature>
					<threshold> 0.07735138 </threshold>
					<split pos="left">
						<output> -0.94214815 </output>
					</split>
					<split pos="right">
						<feature> 11 </feature>
						<threshold> 0.12890625 </threshold>
						<split pos="left">
							<output> -0.7257549 </output>
						</split>
						<split pos="right">
							<feature> 1 </feature>
							<threshold> 0.15816067 </threshold>
							<split pos="left">
								<output> -0.43757334 </output>
							</split>
							<split pos="right">
								<output> 0.19918504 </output>
							</split>
						</split>
					</split>
				</split>
				<split pos="right">
					<feature> 1 </feature>
					<threshold> 0.12179649 </threshold>
					<split pos="left">
						<output> -0.40778562 </output>
					</split>
					<split pos="right">
						<feature> 4 </feature>
						<threshold> 0.37890625 </threshold>
						<split pos="left">
							<output> -0.43851224 </output>
						</split>
						<split pos="right">
							<output> 0.38232446 </output>
						</split>
					</split>
				</split>
			</split>
			<split pos="right">
				<feature> 1 </feature>
				<threshold> 0.27129376 </threshold>
				<split pos="left">
					<feature> 11 </feature>
					<threshold> 0.15234375 </threshold>
					<split pos="left">
						<output> 0.72175336 </output>
					</split>
					<split pos="right">
						<output> 0.52835923 </output>
					</split>
				</split>
				<split pos="right">
					<output> 1.1071109 </output>
				</split>
			</split>
		</split>
	</tree>
	<tree id="24" weight="0.1">
		<split>
			<feature> 1 </feature>
			<threshold> 0.21068671 </threshold>
			<split pos="left">
				<feature> 11 </feature>
				<threshold> 0.1484375 </threshold>
				<split pos="left">
					<feature> 9 </feature>
					<threshold> 0.140625 </threshold>
					<split pos="left">
						<output> -0.69014 </output>
					</split>
					<split pos="right">
						<feature> 1 </feature>
						<threshold> 0.15816067 </threshold>
						<split pos="left">
							<output> -0.59789145 </output>
						</split>
						<split pos="right">
							<feature> 3 </feature>
							<threshold> 0.32421875 </threshold>
							<split pos="left">
								<output> -0.12542662 </output>
							</split>
							<split pos="right">
								<output> 0.5100107 </output>
							</split>
						</split>
					</split>
				</split>
				<split pos="right">
					<feature> 1 </feature>
					<threshold> 0.12179649 </threshold>
					<split pos="left">
						<output> -0.37879175 </output>
					</split>
					<split pos="right">
						<feature> 5 </feature>
						<threshold> 0.2578125 </threshold>
						<split pos="left">
							<output> -0.0074075055 </output>
						</split>
						<split pos="right">
							<output> 0.5175471 </output>
						</split>
					</split>
				</split>
			</split>
			<split pos="right">
				<feature> 1 </feature>
				<threshold> 0.27129376 </threshold>
				<split pos="left">
					<feature> 4 </feature>
					<threshold> 0.3828125 </threshold>
					<split pos="left">
						<output> -0.039811675 </output>
					</split>
					<split pos="right">
						<output> 0.7688167 </output>
					</split>
				</split>
				<split pos="right">
					<output> 1.0693595 </output>
				</split>
			</split>
		</split>
	</tree>
	<tree id="25" weight="0.1">
		<split>
			<feature> 1 </feature>
			<threshold> 0.21068671 </threshold>
			<split pos="left">
				<feature> 11 </feature>
				<threshold> 0.1484375 </threshold>
				<split pos="left">
					<feature> 9 </feature>
					<threshold> 0.140625 </threshold>
					<split pos="left">
						<output> -0.6843207 </output>
					</split>
					<split pos="right">
						<feature> 1 </feature>
						<threshold> 0.15816067 </threshold>
						<split pos="left">
							<output> -0.57543594 </output>
						</split>
						<split pos="right">
							<feature> 3 </feature>
							<threshold> 0.32421875 </threshold>
							<split pos="left">
								<output> -0.15216948 </output>
							</split>
							<split pos="right">
								<output> 0.4734222 </output>
							</split>
						</split>
					</split>
				</split>
				<split pos="right">
					<feature> 4 </feature>
					<threshold> 0.38671875 </threshold>
					<split pos="left">
						<output> -0.35006922 </output>
					</split>
					<split pos="right">
						<feature> 1 </feature>
						<threshold> 0.12179649 </threshold>
						<split pos="left">
							<output> -0.19454527 </output>
						</split>
						<split pos="right">
							<output> 0.36433855 </output>
						</split>
					</split>
				</split>
			</split>
			<split pos="right">
				<feature> 1 </feature>
				<threshold> 0.27129376 </threshold>
				<split pos="left">
					<feature> 4 </feature>
					<threshold> 0.3828125 </threshold>
					<split pos="left">
						<output> 0.005580896 </output>
					</split>
					<split pos="right">
						<output> 0.7402834 </output>
					</split>
				</split>
				<split pos="right">
					<output> 1.05412 </output>
				</split>
			</split>
		</split>
	</tree>
	<tree id="26" weight="0.1">
		<split>
			<feature> 1 </feature>
			<threshold> 0.22280811 </threshold>
			<split pos="left">
				<feature> 1 </feature>
				<threshold> 0.101594165 </threshold>
				<split pos="left">
					<output> -0.77274626 </output>
				</split>
				<split pos="right">
					<feature> 4 </feature>
					<threshold> 0.38671875 </threshold>
					<split pos="left">
						<feature> 6 </feature>
						<threshold> 0.59375 </threshold>
						<split pos="left">
							<feature> 9 </feature>
							<threshold> 0.05078125 </threshold>
							<split pos="left">
								<output> 0.08514699 </output>
							</split>
							<split pos="right">
								<output> -0.39128163 </output>
							</split>
						</split>
						<split pos="right">
							<output> -4.1225967 </output>
						</split>
					</split>
					<split pos="right">
						<feature> 1 </feature>
						<threshold> 0.18644392 </threshold>
						<split pos="left">
							<feature> 11 </feature>
							<threshold> 0.140625 </threshold>
							<split pos="left">
								<output> -0.29254952 </output>
							</split>
							<split pos="right">
								<feature> 5 </feature>
								<threshold> 0.26953125 </threshold>
								<split pos="left">
									<output> 0.055463087 </output>
								</split>
								<split pos="right">
									<output> 0.48994815 </output>
								</split>
							</split>
						</split>
						<split pos="right">
							<feature> 4 </feature>
							<threshold> 0.609375 </threshold>
							<split pos="left">
								<output> 0.59779614 </output>
							</split>
							<split pos="right">
								<output> -0.5372864 </output>
							</split>
						</split>
					</split>
				</split>
			</split>
			<split pos="right">
				<output> 0.8282342 </output>
			</split>
		</split>
	</tree>
	<tree id="27" weight="0.1">
		<split>
			<feature> 1 </feature>
			<threshold> 0.21068671 </threshold>
			<split pos="left">
				<feature> 11 </feature>
				<threshold> 0.140625 </threshold>
				<split pos="left">
					<feature> 9 </feature>
					<threshold> 0.140625 </threshold>
					<split pos="left">
						<output> -0.7321454 </output>
					</split>
					<split pos="right">
						<feature> 1 </feature>
						<threshold> 0.19452485 </threshold>
						<split pos="left">
							<output> -0.47601068 </output>
						</split>
						<split pos="right">
							<output> -0.54996336 </output>
						</split>
					</split>
				</split>
				<split pos="right">
					<feature> 1 </feature>
					<threshold> 0.12179649 </threshold>
					<split pos="left">
						<output> -0.41284737 </output>
					</split>
					<split pos="right">
						<feature> 5 </feature>
						<threshold> 0.2578125 </threshold>
						<split pos="left">
							<feature> 8 </feature>
							<threshold> 0.328125 </threshold>
							<split pos="left">
								<output> -0.28427586 </output>
							</split>
							<split pos="right">
								<output> 0.1872817 </output>
							</split>
						</split>
						<split pos="right">
							<output> 0.4191734 </output>
						</split>
					</split>
				</split>
			</split>
			<split pos="right">
				<feature> 1 </feature>
				<threshold> 0.27129376 </threshold>
				<split pos="left">
					<feature> 4 </feature>
					<threshold> 0.3828125 </threshold>
					<split pos="left">
						<output> -0.040669672 </output>
					</split>
					<split pos="right">
						<output> 0.6766981 </output>
					</split>
				</split>
				<split pos="right">
					<output> 1.0250497 </output>
				</split>
			</split>
		</split>
	</tree>
	<tree id="28" weight="0.1">
		<split>
			<feature> 1 </feature>
			<threshold> 0.21876764 </threshold>
			<split pos="left">
				<feature> 11 </feature>
				<threshold> 0.1484375 </threshold>
				<split pos="left">
					<feature> 1 </feature>
					<threshold> 0.07331091 </threshold>
					<split pos="left">
						<output> -0.91673625 </output>
					</split>
					<split pos="right">
						<feature> 4 </feature>
						<threshold> 0.38671875 </threshold>
						<split pos="left">
							<output> -0.51936936 </output>
						</split>
						<split pos="right">
							<feature> 1 </feature>
							<threshold> 0.21068671 </threshold>
							<split pos="left">
								<feature> 1 </feature>
								<threshold> 0.18644392 </threshold>
								<split pos="left">
									<feature> 1 </feature>
									<threshold> 0.18240346 </threshold>
									<split pos="left">
										<output> -0.23430187 </output>
									</split>
									<split pos="right">
										<output> -0.58059263 </output>
									</split>
								</split>
								<split pos="right">
									<output> 0.24945447 </output>
								</split>
							</split>
							<split pos="right">
								<output> 0.6929959 </output>
							</split>
						</split>
					</split>
				</split>
				<split pos="right">
					<feature> 5 </feature>
					<threshold> 0.2578125 </threshold>
					<split pos="left">
						<output> -0.14973226 </output>
					</split>
					<split pos="right">
						<output> 0.3749752 </output>
					</split>
				</split>
			</split>
			<split pos="right">
				<feature> 1 </feature>
				<threshold> 0.27533424 </threshold>
				<split pos="left">
					<output> 0.5909998 </output>
				</split>
				<split pos="right">
					<output> 1.0244292 </output>
				</split>
			</split>
		</split>
	</tree>
	<tree id="29" weight="0.1">
		<split>
			<feature> 1 </feature>
			<threshold> 0.21876764 </threshold>
			<split pos="left">
				<feature> 1 </feature>
				<threshold> 0.0975537 </threshold>
				<split pos="left">
					<output> -0.7521166 </output>
				</split>
				<split pos="right">
					<feature> 8 </feature>
					<threshold> 0.32421875 </threshold>
					<split pos="left">
						<feature> 4 </feature>
						<threshold> 0.39453125 </threshold>
						<split pos="left">
							<feature> 1 </feature>
							<threshold> 0.21472718 </threshold>
							<split pos="left">
								<feature> 9 </feature>
								<threshold> 0.05078125 </threshold>
								<split pos="left">
									<output> 0.019929923 </output>
								</split>
								<split pos="right">
									<output> -0.43318945 </output>
								</split>
							</split>
							<split pos="right">
								<output> -0.86906415 </output>
							</split>
						</split>
						<split pos="right">
							<output> 0.019678945 </output>
						</split>
					</split>
					<split pos="right">
						<feature> 1 </feature>
						<threshold> 0.14603928 </threshold>
						<split pos="left">
							<output> 0.11825502 </output>
						</split>
						<split pos="right">
							<feature> 3 </feature>
							<threshold> 0.32421875 </threshold>
							<split pos="left">
								<output> 0.09046946 </output>
							</split>
							<split pos="right">
								<output> 0.4831177 </output>
							</split>
						</split>
					</split>
				</split>
			</split>
			<split pos="right">
				<feature> 1 </feature>
				<threshold> 0.27533424 </threshold>
				<split pos="left">
					<output> 0.5543906 </output>
				</split>
				<split pos="right">
					<output> 0.9854142 </output>
				</split>
			</split>
		</split>
	</tree>
	<tree id="30" weight="0.1">
		<split>
			<feature> 1 </feature>
			<threshold> 0.22280811 </threshold>
			<split pos="left">
				<feature> 11 </feature>
				<threshold> 0.15234375 </threshold>
				<split pos="left">
					<feature> 9 </feature>
					<threshold> 0.13671875 </threshold>
					<split pos="left">
						<output> -0.624286 </output>
					</split>
					<split pos="right">
						<feature> 2 </feature>
						<threshold> 0.068359375 </threshold>
						<split pos="left">
							<feature> 1 </feature>
							<threshold> 0.21472718 </threshold>
							<split pos="left">
								<feature> 11 </feature>
								<threshold> 0.13671875 </threshold>
								<split pos="left">
									<feature> 1 </feature>
									<threshold> 0.19452485 </threshold>
									<split pos="left">
										<output> -0.4838235 </output>
									</split>
									<split pos="right">
										<output> -0.851569 </output>
									</split>
								</split>
								<split pos="right">
									<output> -0.053962722 </output>
								</split>
							</split>
							<split pos="right">
								<output> 0.43148646 </output>
							</split>
						</split>
						<split pos="right">
							<output> -7.6559787 </output>
						</split>
					</split>
				</split>
				<split pos="right">
					<output> 0.18597521 </output>
				</split>
			</split>
			<split pos="right">
				<feature> 1 </feature>
				<threshold> 0.29957712 </threshold>
				<split pos="left">
					<feature> 3 </feature>
					<threshold> 0.28515625 </threshold>
					<split pos="left">
						<output> 0.19241367 </output>
					</split>
					<split pos="right">
						<output> 0.7683299 </output>
					</split>
				</split>
				<split pos="right">
					<output> 1.1020831 </output>
				</split>
			</split>
		</split>
	</tree>
	<tree id="31" weight="0.1">
		<split>
			<feature> 1 </feature>
			<threshold> 0.22280811 </threshold>
			<split pos="left">
				<feature> 11 </feature>
				<threshold> 0.16015625 </threshold>
				<split pos="left">
					<feature> 1 </feature>
					<threshold> 0.08139184 </threshold>
					<split pos="left">
						<output> -0.81964695 </output>
					</split>
					<split pos="right">
						<feature> 10 </feature>
						<threshold> 0.33203125 </threshold>
						<split pos="left">
							<feature> 9 </feature>
							<threshold> 0.05078125 </threshold>
							<split pos="left">
								<output> 0.029977702 </output>
							</split>
							<split pos="right">
								<feature> 9 </feature>
								<threshold> 0.12890625 </threshold>
								<split pos="left">
									<output> -0.9924767 </output>
								</split>
								<split pos="right">
									<feature> 5 </feature>
									<threshold> 0.21484375 </threshold>
									<split pos="left">
										<output> -0.52192336 </output>
									</split>
									<split pos="right">
										<output> -0.07731009 </output>
									</split>
								</split>
							</split>
						</split>
						<split pos="right">
							<feature> 1 </feature>
							<threshold> 0.178363 </threshold>
							<split pos="left">
								<output> -0.040398084 </output>
							</split>
							<split pos="right">
								<output> 0.30858204 </output>
							</split>
						</split>
					</split>
				</split>
				<split pos="right">
					<output> 0.25101137 </output>
				</split>
			</split>
			<split pos="right">
				<feature> 1 </feature>
				<threshold> 0.27533424 </threshold>
				<split pos="left">
					<output> 0.50823796 </output>
				</split>
				<split pos="right">
					<output> 0.99153334 </output>
				</split>
			</split>
		</split>
	</tree>
	<tree id="32" weight="0.1">
		<split>
			<feature> 1 </feature>
			<threshold> 0.23896997 </threshold>
			<split pos="left">
				<feature> 1 </feature>
				<threshold> 0.18644392 </threshold>
				<split pos="left">
					<feature> 11 </feature>
					<threshold> 0.16015625 </threshold>
					<split pos="left">
						<feature> 10 </feature>
						<threshold> 0.32421875 </threshold>
						<split pos="left">
							<feature> 1 </feature>
							<threshold> 0.178363 </threshold>
							<split pos="left">
								<output> -0.51443315 </output>
							</split>
							<split pos="right">
								<output> -0.6914932 </output>
							</split>
						</split>
						<split pos="right">
							<feature> 9 </feature>
							<threshold> 0.14453125 </threshold>
							<split pos="left">
								<output> -0.44862294 </output>
							</split>
							<split pos="right">
								<output> -0.048448924 </output>
							</split>
						</split>
					</split>
					<split pos="right">
						<output> 0.18401694 </output>
					</split>
				</split>
				<split pos="right">
					<feature> 4 </feature>
					<threshold> 0.38671875 </threshold>
					<split pos="left">
						<feature> 5 </feature>
						<threshold> 0.390625 </threshold>
						<split pos="left">
							<output> -0.13875867 </output>
						</split>
						<split pos="right">
							<output> -2.4805102 </output>
						</split>
					</split>
					<split pos="right">
						<feature> 5 </feature>
						<threshold> 0.2265625 </threshold>
						<split pos="left">
							<output> 0.12103267 </output>
						</split>
						<split pos="right">
							<output> 0.6813746 </output>
						</split>
					</split>
				</split>
			</split>
			<split pos="right">
				<output> 0.84906155 </output>
			</split>
		</split>
	</tree>
	<tree id="33" weight="0.1">
		<split>
			<feature> 1 </feature>
			<threshold> 0.23896997 </threshold>
			<split pos="left">
				<feature> 1 </feature>
				<threshold> 0.1541202 </threshold>
				<split pos="left">
					<feature> 11 </feature>
					<threshold> 0.140625 </threshold>
					<split pos="left">
						<output> -0.6735477 </output>
					</split>
					<split pos="right">
						<feature> 4 </feature>
						<threshold> 0.39453125 </threshold>
						<split pos="left">
							<output> -0.31668034 </output>
						</split>
						<split pos="right">
							<output> 0.18301363 </output>
						</split>
					</split>
				</split>
				<split pos="right">
					<feature> 8 </feature>
					<threshold> 0.33203125 </threshold>
					<split pos="left">
						<feature> 5 </feature>
						<threshold> 0.41796875 </threshold>
						<split pos="left">
							<feature> 5 </feature>
							<threshold> 0.2578125 </threshold>
							<split pos="left">
								<feature> 8 </feature>
								<threshold> 0.13671875 </threshold>
								<split pos="left">
									<output> 0.09828538 </output>
								</split>
								<split pos="right">
									<feature> 9 </feature>
									<threshold> 0.1640625 </threshold>
									<split pos="left">
										<output> -0.044273052 </output>
									</split>
									<split pos="right">
										<output> -0.7318498 </output>
									</split>
								</split>
							</split>
							<split pos="right">
								<output> 0.26922742 </output>
							</split>
						</split>
						<split pos="right">
							<output> -1.2515749 </output>
						</split>
					</split>
					<split pos="right">
						<output> 0.44620943 </output>
					</split>
				</split>
			</split>
			<split pos="right">
				<output> 0.7975213 </output>
			</split>
		</split>
	</tree>
	<tree id="34" weight="0.1">
		<split>
			<feature> 1 </feature>
			<threshold> 0.22684857 </threshold>
			<split pos="left">
				<feature> 11 </feature>
				<threshold> 0.16796875 </threshold>
				<split pos="left">
					<feature> 1 </feature>
					<threshold> 0.085432306 </threshold>
					<split pos="left">
						<output> -0.753094 </output>
					</split>
					<split pos="right">
						<feature> 8 </feature>
						<threshold> 0.328125 </threshold>
						<split pos="left">
							<feature> 1 </feature>
							<threshold> 0.21068671 </threshold>
							<split pos="left">
								<feature> 4 </feature>
								<threshold> 0.4765625 </threshold>
								<split pos="left">
									<feature> 4 </feature>
									<threshold> 0.40625 </threshold>
									<split pos="left">
										<feature> 9 </feature>
										<threshold> 0.05078125 </threshold>
										<split pos="left">
											<output> 0.012197495 </output>
										</split>
										<split pos="right">
											<output> -0.3029487 </output>
										</split>
									</split>
									<split pos="right">
										<output> 0.25548562 </output>
									</split>
								</split>
								<split pos="right">
									<output> -0.5406367 </output>
								</split>
							</split>
							<split pos="right">
								<output> -0.42180496 </output>
							</split>
						</split>
						<split pos="right">
							<feature> 1 </feature>
							<threshold> 0.21068671 </threshold>
							<split pos="left">
								<output> 0.11083658 </output>
							</split>
							<split pos="right">
								<output> 0.7864915 </output>
							</split>
						</split>
					</split>
				</split>
				<split pos="right">
					<output> 0.31559452 </output>
				</split>
			</split>
			<split pos="right">
				<output> 0.70271736 </output>
			</split>
		</split>
	</tree>
	<tree id="35" weight="0.1">
		<split>
			<feature> 1 </feature>
			<threshold> 0.25109136 </threshold>
			<split pos="left">
				<feature> 1 </feature>
				<threshold> 0.1541202 </threshold>
				<split pos="left">
					<feature> 11 </feature>
					<threshold> 0.14453125 </threshold>
					<split pos="left">
						<output> -0.5896225 </output>
					</split>
					<split pos="right">
						<output> -0.009726206 </output>
					</split>
				</split>
				<split pos="right">
					<feature> 4 </feature>
					<threshold> 0.38671875 </threshold>
					<split pos="left">
						<feature> 7 </feature>
						<threshold> 0.016802205 </threshold>
						<split pos="left">
							<feature> 9 </feature>
							<threshold> 0.04296875 </threshold>
							<split pos="left">
								<output> 0.37167177 </output>
							</split>
							<split pos="right">
								<feature> 4 </feature>
								<threshold> 0.34765625 </threshold>
								<split pos="left">
									<output> -1.1340307 </output>
								</split>
								<split pos="right">
									<output> -0.18972398 </output>
								</split>
							</split>
						</split>
						<split pos="right">
							<output> 0.50416476 </output>
						</split>
					</split>
					<split pos="right">
						<feature> 4 </feature>
						<threshold> 0.53125 </threshold>
						<split pos="left">
							<feature> 1 </feature>
							<threshold> 0.18644392 </threshold>
							<split pos="left">
								<output> 0.25464264 </output>
							</split>
							<split pos="right">
								<output> 0.5475582 </output>
							</split>
						</split>
						<split pos="right">
							<output> -0.28126755 </output>
						</split>
					</split>
				</split>
			</split>
			<split pos="right">
				<output> 0.8070294 </output>
			</split>
		</split>
	</tree>
	<tree id="36" weight="0.1">
		<split>
			<feature> 1 </feature>
			<threshold> 0.21068671 </threshold>
			<split pos="left">
				<feature> 11 </feature>
				<threshold> 0.16015625 </threshold>
				<split pos="left">
					<feature> 10 </feature>
					<threshold> 0.33203125 </threshold>
					<split pos="left">
						<feature> 1 </feature>
						<threshold> 0.178363 </threshold>
						<split pos="left">
							<feature> 1 </feature>
							<threshold> 0.06927045 </threshold>
							<split pos="left">
								<output> -0.86600214 </output>
							</split>
							<split pos="right">
								<output> -0.307404 </output>
							</split>
						</split>
						<split pos="right">
							<feature> 4 </feature>
							<threshold> 0.59375 </threshold>
							<split pos="left">
								<output> -0.18524157 </output>
							</split>
							<split pos="right">
								<output> -1.8831358 </output>
							</split>
						</split>
					</split>
					<split pos="right">
						<feature> 9 </feature>
						<threshold> 0.14453125 </threshold>
						<split pos="left">
							<output> -0.37286887 </output>
						</split>
						<split pos="right">
							<output> 0.087086596 </output>
						</split>
					</split>
				</split>
				<split pos="right">
					<output> 0.21813832 </output>
				</split>
			</split>
			<split pos="right">
				<feature> 1 </feature>
				<threshold> 0.29957712 </threshold>
				<split pos="left">
					<feature> 3 </feature>
					<threshold> 0.30859375 </threshold>
					<split pos="left">
						<output> 0.08547371 </output>
					</split>
					<split pos="right">
						<output> 0.6645594 </output>
					</split>
				</split>
				<split pos="right">
					<output> 1.0241654 </output>
				</split>
			</split>
		</split>
	</tree>
	<tree id="37" weight="0.1">
		<split>
			<feature> 1 </feature>
			<threshold> 0.25109136 </threshold>
			<split pos="left">
				<feature> 4 </feature>
				<threshold> 0.3984375 </threshold>
				<split pos="left">
					<feature> 9 </feature>
					<threshold> 0.14453125 </threshold>
					<split pos="left">
						<feature> 9 </feature>
						<threshold> 0.05078125 </threshold>
						<split pos="left">
							<output> -0.044036724 </output>
						</split>
						<split pos="right">
							<output> -0.6052654 </output>
						</split>
					</split>
					<split pos="right">
						<feature> 10 </feature>
						<threshold> 0.3203125 </threshold>
						<split pos="left">
							<output> -0.41090286 </output>
						</split>
						<split pos="right">
							<feature> 1 </feature>
							<threshold> 0.1541202 </threshold>
							<split pos="left">
								<output> -0.23424649 </output>
							</split>
							<split pos="right">
								<feature> 4 </feature>
								<threshold> 0.38671875 </threshold>
								<split pos="left">
									<output> -0.07318927 </output>
								</split>
								<split pos="right">
									<output> 0.42326578 </output>
								</split>
							</split>
						</split>
					</split>
				</split>
				<split pos="right">
					<feature> 1 </feature>
					<threshold> 0.19856532 </threshold>
					<split pos="left">
						<feature> 4 </feature>
						<threshold> 0.5390625 </threshold>
						<split pos="left">
							<output> 0.27300668 </output>
						</split>
						<split pos="right">
							<output> -0.5072434 </output>
						</split>
					</split>
					<split pos="right">
						<output> 0.62089133 </output>
					</split>
				</split>
			</split>
			<split pos="right">
				<output> 0.7685895 </output>
			</split>
		</split>
	</tree>
	<tree id="38" weight="0.1">
		<split>
			<feature> 1 </feature>
			<threshold> 0.21472718 </threshold>
			<split pos="left">
				<feature> 11 </feature>
				<threshold> 0.16015625 </threshold>
				<split pos="left">
					<feature> 1 </feature>
					<threshold> 0.21068671 </threshold>
					<split pos="left">
						<feature> 9 </feature>
						<threshold> 0.13671875 </threshold>
						<split pos="left">
							<output> -0.46836048 </output>
						</split>
						<split pos="right">
							<feature> 3 </feature>
							<threshold> 0.32421875 </threshold>
							<split pos="left">
								<feature> 1 </feature>
								<threshold> 0.178363 </threshold>
								<split pos="left">
									<output> -0.35142472 </output>
								</split>
								<split pos="right">
									<feature> 3 </feature>
									<threshold> 0.3203125 </threshold>
									<split pos="left">
										<output> -0.20948191 </output>
									</split>
									<split pos="right">
										<output> -2.9679744 </output>
									</split>
								</split>
							</split>
							<split pos="right">
								<output> 0.07321233 </output>
							</split>
						</split>
					</split>
					<split pos="right">
						<output> -0.743511 </output>
					</split>
				</split>
				<split pos="right">
					<output> 0.21904156 </output>
				</split>
			</split>
			<split pos="right">
				<feature> 1 </feature>
				<threshold> 0.31977952 </threshold>
				<split pos="left">
					<feature> 3 </feature>
					<threshold> 0.3125 </threshold>
					<split pos="left">
						<output> 0.12861389 </output>
					</split>
					<split pos="right">
						<output> 0.6991043 </output>
					</split>
				</split>
				<split pos="right">
					<output> 1.1463122 </output>
				</split>
			</split>
		</split>
	</tree>
	<tree id="39" weight="0.1">
		<split>
			<feature> 1 </feature>
			<threshold> 0.20260578 </threshold>
			<split pos="left">
				<feature> 4 </feature>
				<threshold> 0.3984375 </threshold>
				<split pos="left">
					<feature> 10 </feature>
					<threshold> 0.33203125 </threshold>
					<split pos="left">
						<feature> 9 </feature>
						<threshold> 0.05078125 </threshold>
						<split pos="left">
							<output> -0.10026653 </output>
						</split>
						<split pos="right">
							<feature> 1 </feature>
							<threshold> 0.178363 </threshold>
							<split pos="left">
								<output> -0.49589837 </output>
							</split>
							<split pos="right">
								<output> -0.49813625 </output>
							</split>
						</split>
					</split>
					<split pos="right">
						<output> -0.14302494 </output>
					</split>
				</split>
				<split pos="right">
					<feature> 11 </feature>
					<threshold> 0.15625 </threshold>
					<split pos="left">
						<output> -0.09561115 </output>
					</split>
					<split pos="right">
						<output> 0.39122507 </output>
					</split>
				</split>
			</split>
			<split pos="right">
				<feature> 1 </feature>
				<threshold> 0.31977952 </threshold>
				<split pos="left">
					<feature> 4 </feature>
					<threshold> 0.37890625 </threshold>
					<split pos="left">
						<output> -0.14624648 </output>
					</split>
					<split pos="right">
						<feature> 8 </feature>
						<threshold> 0.31640625 </threshold>
						<split pos="left">
							<output> 0.15789086 </output>
						</split>
						<split pos="right">
							<output> 0.6819708 </output>
						</split>
					</split>
				</split>
				<split pos="right">
					<output> 1.1326771 </output>
				</split>
			</split>
		</split>
	</tree>
	<tree id="40" weight="0.1">
		<split>
			<feature> 1 </feature>
			<threshold> 0.27533424 </threshold>
			<split pos="left">
				<feature> 1 </feature>
				<threshold> 0.1541202 </threshold>
				<split pos="left">
					<feature> 1 </feature>
					<threshold> 0.08947277 </threshold>
					<split pos="left">
						<output> -0.6904998 </output>
					</split>
					<split pos="right">
						<output> -0.07432943 </output>
					</split>
				</split>
				<split pos="right">
					<feature> 6 </feature>
					<threshold> 0.37890625 </threshold>
					<split pos="left">
						<feature> 8 </feature>
						<threshold> 0.34765625 </threshold>
						<split pos="left">
							<feature> 5 </feature>
							<threshold> 0.26171875 </threshold>
							<split pos="left">
								<feature> 10 </feature>
								<threshold> 0.0 </threshold>
								<split pos="left">
									<output> 0.20801133 </output>
								</split>
								<split pos="right">
									<feature> 9 </feature>
									<threshold> 0.12890625 </threshold>
									<split pos="left">
										<output> -1.790917 </output>
									</split>
									<split pos="right">
										<feature> 11 </feature>
										<threshold> 0.140625 </threshold>
										<split pos="left">
											<output> 0.22436953 </output>
										</split>
										<split pos="right">
											<output> -0.38906568 </output>
										</split>
									</split>
								</split>
							</split>
							<split pos="right">
								<output> 0.12079406 </output>
							</split>
						</split>
						<split pos="right">
							<output> 0.47150972 </output>
						</split>
					</split>
					<split pos="right">
						<output> 0.4840269 </output>
					</split>
				</split>
			</split>
			<split pos="right">
				<output> 0.89085424 </output>
			</split>
		</split>
	</tree>
	<tree id="41" weight="0.1">
		<split>
			<feature> 1 </feature>
			<threshold> 0.20260578 </threshold>
			<split pos="left">
				<feature> 11 </feature>
				<threshold> 0.14453125 </threshold>
				<split pos="left">
					<feature> 1 </feature>
					<threshold> 0.19856532 </threshold>
					<split pos="left">
						<feature> 9 </feature>
						<threshold> 0.13671875 </threshold>
						<split pos="left">
							<output> -0.5979025 </output>
						</split>
						<split pos="right">
							<output> -0.286038 </output>
						</split>
					</split>
					<split pos="right">
						<output> -0.7757807 </output>
					</split>
				</split>
				<split pos="right">
					<feature> 10 </feature>
					<threshold> 0.33203125 </threshold>
					<split pos="left">
						<feature> 5 </feature>
						<threshold> 0.2578125 </threshold>
						<split pos="left">
							<output> -0.33317205 </output>
						</split>
						<split pos="right">
							<output> 0.10494877 </output>
						</split>
					</split>
					<split pos="right">
						<output> 0.3236068 </output>
					</split>
				</split>
			</split>
			<split pos="right">
				<feature> 1 </feature>
				<threshold> 0.31977952 </threshold>
				<split pos="left">
					<feature> 4 </feature>
					<threshold> 0.37890625 </threshold>
					<split pos="left">
						<output> -0.20934463 </output>
					</split>
					<split pos="right">
						<feature> 8 </feature>
						<threshold> 0.31640625 </threshold>
						<split pos="left">
							<output> 0.107563965 </output>
						</split>
						<split pos="right">
							<output> 0.6723549 </output>
						</split>
					</split>
				</split>
				<split pos="right">
					<output> 1.1130441 </output>
				</split>
			</split>
		</split>
	</tree>
	<tree id="42" weight="0.1">
		<split>
			<feature> 1 </feature>
			<threshold> 0.18644392 </threshold>
			<split pos="left">
				<feature> 4 </feature>
				<threshold> 0.39453125 </threshold>
				<split pos="left">
					<output> -0.36728546 </output>
				</split>
				<split pos="right">
					<feature> 11 </feature>
					<threshold> 0.16015625 </threshold>
					<split pos="left">
						<feature> 4 </feature>
						<threshold> 0.4765625 </threshold>
						<split pos="left">
							<output> -0.049508296 </output>
						</split>
						<split pos="right">
							<output> -0.5434221 </output>
						</split>
					</split>
					<split pos="right">
						<output> 0.37199667 </output>
					</split>
				</split>
			</split>
			<split pos="right">
				<feature> 1 </feature>
				<threshold> 0.31977952 </threshold>
				<split pos="left">
					<feature> 6 </feature>
					<threshold> 0.38671875 </threshold>
					<split pos="left">
						<feature> 3 </feature>
						<threshold> 0.55078125 </threshold>
						<split pos="left">
							<feature> 8 </feature>
							<threshold> 0.328125 </threshold>
							<split pos="left">
								<feature> 5 </feature>
								<threshold> 0.390625 </threshold>
								<split pos="left">
									<output> 0.07354556 </output>
								</split>
								<split pos="right">
									<output> -2.1827602 </output>
								</split>
							</split>
							<split pos="right">
								<output> 0.43892768 </output>
							</split>
						</split>
						<split pos="right">
							<output> -2.9550037 </output>
						</split>
					</split>
					<split pos="right">
						<output> 0.74179167 </output>
					</split>
				</split>
				<split pos="right">
					<output> 1.100827 </output>
				</split>
			</split>
		</split>
	</tree>
	<tree id="43" weight="0.1">
		<split>
			<feature> 1 </feature>
			<threshold> 0.19856532 </threshold>
			<split pos="left">
				<feature> 1 </feature>
				<threshold> 0.101594165 </threshold>
				<split pos="left">
					<output> -0.5893441 </output>
				</split>
				<split pos="right">
					<feature> 8 </feature>
					<threshold> 0.34375 </threshold>
					<split pos="left">
						<feature> 6 </feature>
						<threshold> 0.3828125 </threshold>
						<split pos="left">
							<feature> 2 </feature>
							<threshold> 0.0 </threshold>
							<split pos="left">
								<feature> 4 </feature>
								<threshold> 0.48828125 </threshold>
								<split pos="left">
									<feature> 4 </feature>
									<threshold> 0.40625 </threshold>
									<split pos="left">
										<output> -0.1474002 </output>
									</split>
									<split pos="right">
										<output> 0.40092263 </output>
									</split>
								</split>
								<split pos="right">
									<output> -0.5895762 </output>
								</split>
							</split>
							<split pos="right">
								<output> -0.83948004 </output>
							</split>
						</split>
						<split pos="right">
							<output> 0.18116286 </output>
						</split>
					</split>
					<split pos="right">
						<output> 0.3999699 </output>
					</split>
				</split>
			</split>
			<split pos="right">
				<feature> 1 </feature>
				<threshold> 0.31977952 </threshold>
				<split pos="left">
					<feature> 6 </feature>
					<threshold> 0.37109375 </threshold>
					<split pos="left">
						<output> 0.09316805 </output>
					</split>
					<split pos="right">
						<output> 0.62361205 </output>
					</split>
				</split>
				<split pos="right">
					<output> 1.0898615 </output>
				</split>
			</split>
		</split>
	</tree>
	<tree id="44" weight="0.1">
		<split>
			<feature> 1 </feature>
			<threshold> 0.25917232 </threshold>
			<split pos="left">
				<feature> 1 </feature>
				<threshold> 0.1541202 </threshold>
				<split pos="left">
					<output> -0.24862331 </output>
				</split>
				<split pos="right">
					<feature> 6 </feature>
					<threshold> 0.36328125 </threshold>
					<split pos="left">
						<feature> 1 </feature>
						<threshold> 0.25513184 </threshold>
						<split pos="left">
							<feature> 7 </feature>
							<threshold> 0.028003676 </threshold>
							<split pos="left">
								<feature> 8 </feature>
								<threshold> 0.34765625 </threshold>
								<split pos="left">
									<feature> 8 </feature>
									<threshold> 0.1875 </threshold>
									<split pos="left">
										<output> 0.3076146 </output>
									</split>
									<split pos="right">
										<feature> 3 </feature>
										<threshold> 0.55078125 </threshold>
										<split pos="left">
											<output> -0.21997811 </output>
										</split>
										<split pos="right">
											<output> -3.6810827 </output>
										</split>
									</split>
								</split>
								<split pos="right">
									<output> 0.39795738 </output>
								</split>
							</split>
							<split pos="right">
								<output> 0.73971945 </output>
							</split>
						</split>
						<split pos="right">
							<output> -2.0874968 </output>
						</split>
					</split>
					<split pos="right">
						<feature> 9 </feature>
						<threshold> 0.13671875 </threshold>
						<split pos="left">
							<output> -0.07780638 </output>
						</split>
						<split pos="right">
							<output> 0.40112504 </output>
						</split>
					</split>
				</split>
			</split>
			<split pos="right">
				<output> 0.7317392 </output>
			</split>
		</split>
	</tree>
	<tree id="45" weight="0.1">
		<split>
			<feature> 1 </feature>
			<threshold> 0.23088904 </threshold>
			<split pos="left">
				<feature> 4 </feature>
				<threshold> 0.3984375 </threshold>
				<split pos="left">
					<feature> 10 </feature>
					<threshold> 0.32421875 </threshold>
					<split pos="left">
						<feature> 9 </feature>
						<threshold> 0.05078125 </threshold>
						<split pos="left">
							<output> -0.021105494 </output>
						</split>
						<split pos="right">
							<feature> 9 </feature>
							<threshold> 0.12890625 </threshold>
							<split pos="left">
								<output> -0.94961405 </output>
							</split>
							<split pos="right">
								<feature> 5 </feature>
								<threshold> 0.2109375 </threshold>
								<split pos="left">
									<output> -0.5641851 </output>
								</split>
								<split pos="right">
									<output> -0.26445556 </output>
								</split>
							</split>
						</split>
					</split>
					<split pos="right">
						<feature> 4 </feature>
						<threshold> 0.38671875 </threshold>
						<split pos="left">
							<feature> 1 </feature>
							<threshold> 0.19048439 </threshold>
							<split pos="left">
								<output> -0.35211697 </output>
							</split>
							<split pos="right">
								<output> -0.56911206 </output>
							</split>
						</split>
						<split pos="right">
							<output> 0.056101423 </output>
						</split>
					</split>
				</split>
				<split pos="right">
					<feature> 1 </feature>
					<threshold> 0.16220114 </threshold>
					<split pos="left">
						<output> 0.07066211 </output>
					</split>
					<split pos="right">
						<output> 0.3491394 </output>
					</split>
				</split>
			</split>
			<split pos="right">
				<output> 0.58619 </output>
			</split>
		</split>
	</tree>
	<tree id="46" weight="0.1">
		<split>
			<feature> 1 </feature>
			<threshold> 0.29957712 </threshold>
			<split pos="left">
				<feature> 1 </feature>
				<threshold> 0.1541202 </threshold>
				<split pos="left">
					<output> -0.21670832 </output>
				</split>
				<split pos="right">
					<feature> 3 </feature>
					<threshold> 0.30859375 </threshold>
					<split pos="left">
						<feature> 1 </feature>
						<threshold> 0.29553664 </threshold>
						<split pos="left">
							<feature> 7 </feature>
							<threshold> 0.036404777 </threshold>
							<split pos="left">
								<feature> 7 </feature>
								<threshold> 0.035004593 </threshold>
								<split pos="left">
									<feature> 10 </feature>
									<threshold> 0.34375 </threshold>
									<split pos="left">
										<feature> 10 </feature>
										<threshold> 0.2734375 </threshold>
										<split pos="left">
											<output> 0.24669628 </output>
										</split>
										<split pos="right">
											<output> -0.40579432 </output>
										</split>
									</split>
									<split pos="right">
										<output> 0.21832752 </output>
									</split>
								</split>
								<split pos="right">
									<output> -5.6605844 </output>
								</split>
							</split>
							<split pos="right">
								<output> 0.6800804 </output>
							</split>
						</split>
						<split pos="right">
							<output> -3.360923 </output>
						</split>
					</split>
					<split pos="right">
						<feature> 9 </feature>
						<threshold> 0.13671875 </threshold>
						<split pos="left">
							<output> -0.05134212 </output>
						</split>
						<split pos="right">
							<output> 0.3981902 </output>
						</split>
					</split>
				</split>
			</split>
			<split pos="right">
				<output> 0.94942015 </output>
			</split>
		</split>
	</tree>
	<tree id="47" weight="0.1">
		<split>
			<feature> 1 </feature>
			<threshold> 0.27533424 </threshold>
			<split pos="left">
				<feature> 1 </feature>
				<threshold> 0.1541202 </threshold>
				<split pos="left">
					<feature> 4 </feature>
					<threshold> 0.38671875 </threshold>
					<split pos="left">
						<output> -0.5688216 </output>
					</split>
					<split pos="right">
						<feature> 11 </feature>
						<threshold> 0.15625 </threshold>
						<split pos="left">
							<output> -0.24506828 </output>
						</split>
						<split pos="right">
							<output> 0.28698516 </output>
						</split>
					</split>
				</split>
				<split pos="right">
					<feature> 4 </feature>
					<threshold> 0.5703125 </threshold>
					<split pos="left">
						<feature> 4 </feature>
						<threshold> 0.40625 </threshold>
						<split pos="left">
							<feature> 9 </feature>
							<threshold> 0.1484375 </threshold>
							<split pos="left">
								<feature> 1 </feature>
								<threshold> 0.25513184 </threshold>
								<split pos="left">
									<output> -0.022316856 </output>
								</split>
								<split pos="right">
									<output> -3.7500548 </output>
								</split>
							</split>
							<split pos="right">
								<feature> 3 </feature>
								<threshold> 0.328125 </threshold>
								<split pos="left">
									<output> 0.08754305 </output>
								</split>
								<split pos="right">
									<output> 0.4119222 </output>
								</split>
							</split>
						</split>
						<split pos="right">
							<output> 0.61840886 </output>
						</split>
					</split>
					<split pos="right">
						<output> -0.36495024 </output>
					</split>
				</split>
			</split>
			<split pos="right">
				<output> 0.8682912 </output>
			</split>
		</split>
	</tree>
	<tree id="48" weight="0.1">
		<split>
			<feature> 1 </feature>
			<threshold> 0.20260578 </threshold>
			<split pos="left">
				<feature> 11 </feature>
				<threshold> 0.140625 </threshold>
				<split pos="left">
					<feature> 1 </feature>
					<threshold> 0.19452485 </threshold>
					<split pos="left">
						<feature> 1 </feature>
						<threshold> 0.17028207 </threshold>
						<split pos="left">
							<feature> 10 </feature>
							<threshold> 0.32421875 </threshold>
							<split pos="left">
								<output> -0.6432 </output>
							</split>
							<split pos="right">
								<output> -0.42564207 </output>
							</split>
						</split>
						<split pos="right">
							<output> 0.3179044 </output>
						</split>
					</split>
					<split pos="right">
						<output> -0.73035234 </output>
					</split>
				</split>
				<split pos="right">
					<feature> 5 </feature>
					<threshold> 0.2890625 </threshold>
					<split pos="left">
						<feature> 10 </feature>
						<threshold> 0.3203125 </threshold>
						<split pos="left">
							<output> -0.27215794 </output>
						</split>
						<split pos="right">
							<output> 0.07658331 </output>
						</split>
					</split>
					<split pos="right">
						<output> 0.3662466 </output>
					</split>
				</split>
			</split>
			<split pos="right">
				<feature> 1 </feature>
				<threshold> 0.31573904 </threshold>
				<split pos="left">
					<feature> 4 </feature>
					<threshold> 0.3828125 </threshold>
					<split pos="left">
						<output> -0.1673446 </output>
					</split>
					<split pos="right">
						<output> 0.504531 </output>
					</split>
				</split>
				<split pos="right">
					<output> 1.047773 </output>
				</split>
			</split>
		</split>
	</tree>
	<tree id="49" weight="0.1">
		<split>
			<feature> 1 </feature>
			<threshold> 0.21472718 </threshold>
			<split pos="left">
				<feature> 11 </feature>
				<threshold> 0.140625 </threshold>
				<split pos="left">
					<feature> 1 </feature>
					<threshold> 0.19452485 </threshold>
					<split pos="left">
						<feature> 1 </feature>
						<threshold> 0.178363 </threshold>
						<split pos="left">
							<output> -0.47537053 </output>
						</split>
						<split pos="right">
							<output> 0.387514 </output>
						</split>
					</split>
					<split pos="right">
						<output> -0.544699 </output>
					</split>
				</split>
				<split pos="right">
					<feature> 8 </feature>
					<threshold> 0.328125 </threshold>
					<split pos="left">
						<feature> 5 </feature>
						<threshold> 0.23828125 </threshold>
						<split pos="left">
							<output> -0.3378513 </output>
						</split>
						<split pos="right">
							<output> 0.018243069 </output>
						</split>
					</split>
					<split pos="right">
						<feature> 1 </feature>
						<threshold> 0.12583695 </threshold>
						<split pos="left">
							<output> 0.06557747 </output>
						</split>
						<split pos="right">
							<output> 0.31752387 </output>
						</split>
					</split>
				</split>
			</split>
			<split pos="right">
				<feature> 1 </feature>
				<threshold> 0.31573904 </threshold>
				<split pos="left">
					<feature> 9 </feature>
					<threshold> 0.14453125 </threshold>
					<split pos="left">
						<output> -0.0660434 </output>
					</split>
					<split pos="right">
						<output> 0.49631232 </output>
					</split>
				</split>
				<split pos="right">
					<output> 1.0388231 </output>
				</split>
			</split>
		</split>
	</tree>
	<tree id="50" weight="0.1">
		<split>
			<feature> 1 </feature>
			<threshold> 0.22684857 </threshold>
			<split pos="left">
				<feature> 11 </feature>
				<threshold> 0.16796875 </threshold>
				<split pos="left">
					<feature> 9 </feature>
					<threshold> 0.140625 </threshold>
					<split pos="left">
						<feature> 9 </feature>
						<threshold> 0.05859375 </threshold>
						<split pos="left">
							<feature> 1 </feature>
							<threshold> 0.21472718 </threshold>
							<split pos="left">
								<output> 0.029546503 </output>
							</split>
							<split pos="right">
								<output> -2.5563571 </output>
							</split>
						</split>
						<split pos="right">
							<output> -0.5423449 </output>
						</split>
					</split>
					<split pos="right">
						<feature> 3 </feature>
						<threshold> 0.328125 </threshold>
						<split pos="left">
							<feature> 1 </feature>
							<threshold> 0.18240346 </threshold>
							<split pos="left">
								<output> -0.22641708 </output>
							</split>
							<split pos="right">
								<feature> 3 </feature>
								<threshold> 0.3203125 </threshold>
								<split pos="left">
									<output> 0.044968627 </output>
								</split>
								<split pos="right">
									<feature> 11 </feature>
									<threshold> 0.125 </threshold>
									<split pos="left">
										<output> -17.256384 </output>
									</split>
									<split pos="right">
										<output> -1.5970438 </output>
									</split>
								</split>
							</split>
						</split>
						<split pos="right">
							<output> 0.20198257 </output>
						</split>
					</split>
				</split>
				<split pos="right">
					<output> 0.26815903 </output>
				</split>
			</split>
			<split pos="right">
				<output> 0.5625618 </output>
			</split>
		</split>
	</tree>
	<tree id="51" weight="0.1">
		<split>
			<feature> 1 </feature>
			<threshold> 0.20260578 </threshold>
			<split pos="left">
				<feature> 1 </feature>
				<threshold> 0.0975537 </threshold>
				<split pos="left">
					<output> -0.58075786 </output>
				</split>
				<split pos="right">
					<feature> 5 </feature>
					<threshold> 0.2890625 </threshold>
					<split pos="left">
						<feature> 6 </feature>
						<threshold> 0.37890625 </threshold>
						<split pos="left">
							<feature> 4 </feature>
							<threshold> 0.48046875 </threshold>
							<split pos="left">
								<feature> 10 </feature>
								<threshold> 0.33203125 </threshold>
								<split pos="left">
									<feature> 1 </feature>
									<threshold> 0.13795835 </threshold>
									<split pos="left">
										<output> -0.14242743 </output>
									</split>
									<split pos="right">
										<feature> 6 </feature>
										<threshold> 0.37109375 </threshold>
										<split pos="left">
											<output> -0.2176607 </output>
										</split>
										<split pos="right">
											<output> -0.81051606 </output>
										</split>
									</split>
								</split>
								<split pos="right">
									<output> 0.06025589 </output>
								</split>
							</split>
							<split pos="right">
								<output> -0.63816357 </output>
							</split>
						</split>
						<split pos="right">
							<output> 0.17353934 </output>
						</split>
					</split>
					<split pos="right">
						<output> 0.31899023 </output>
					</split>
				</split>
			</split>
			<split pos="right">
				<feature> 1 </feature>
				<threshold> 0.31573904 </threshold>
				<split pos="left">
					<output> 0.33562896 </output>
				</split>
				<split pos="right">
					<output> 1.0284461 </output>
				</split>
			</split>
		</split>
	</tree>
	<tree id="52" weight="0.1">
		<split>
			<feature> 1 </feature>
			<threshold> 0.20260578 </threshold>
			<split pos="left">
				<feature> 6 </feature>
				<threshold> 0.3828125 </threshold>
				<split pos="left">
					<feature> 8 </feature>
					<threshold> 0.33203125 </threshold>
					<split pos="left">
						<feature> 9 </feature>
						<threshold> 0.15625 </threshold>
						<split pos="left">
							<feature> 1 </feature>
							<threshold> 0.17432253 </threshold>
							<split pos="left">
								<feature> 1 </feature>
								<threshold> 0.13795835 </threshold>
								<split pos="left">
									<output> -0.5074085 </output>
								</split>
								<split pos="right">
									<feature> 2 </feature>
									<threshold> 0.005859375 </threshold>
									<split pos="left">
										<output> -0.24996255 </output>
									</split>
									<split pos="right">
										<output> -1.9922404 </output>
									</split>
								</split>
							</split>
							<split pos="right">
								<output> -0.56136936 </output>
							</split>
						</split>
						<split pos="right">
							<output> -0.08573355 </output>
						</split>
					</split>
					<split pos="right">
						<output> 0.017131515 </output>
					</split>
				</split>
				<split pos="right">
					<output> 0.19894396 </output>
				</split>
			</split>
			<split pos="right">
				<feature> 1 </feature>
				<threshold> 0.31573904 </threshold>
				<split pos="left">
					<feature> 4 </feature>
					<threshold> 0.37890625 </threshold>
					<split pos="left">
						<output> -0.19333646 </output>
					</split>
					<split pos="right">
						<output> 0.41867504 </output>
					</split>
				</split>
				<split pos="right">
					<output> 1.0173283 </output>
				</split>
			</split>
		</split>
	</tree>
	<tree id="53" weight="0.1">
		<split>
			<feature> 1 </feature>
			<threshold> 0.18644392 </threshold>
			<split pos="left">
				<feature> 5 </feature>
				<threshold> 0.29296875 </threshold>
				<split pos="left">
					<feature> 10 </feature>
					<threshold> 0.32421875 </threshold>
					<split pos="left">
						<feature> 1 </feature>
						<threshold> 0.13795835 </threshold>
						<split pos="left">
							<output> -0.43067375 </output>
						</split>
						<split pos="right">
							<feature> 3 </feature>
							<threshold> 0.6015625 </threshold>
							<split pos="left">
								<feature> 7 </feature>
								<threshold> 0.036404777 </threshold>
								<split pos="left">
									<feature> 7 </feature>
									<threshold> 0.035004593 </threshold>
									<split pos="left">
										<output> -0.32885665 </output>
									</split>
									<split pos="right">
										<output> -7.889229 </output>
									</split>
								</split>
								<split pos="right">
									<output> 0.6724803 </output>
								</split>
							</split>
							<split pos="right">
								<output> -6.3919454 </output>
							</split>
						</split>
					</split>
					<split pos="right">
						<output> -0.08656745 </output>
					</split>
				</split>
				<split pos="right">
					<output> 0.22880667 </output>
				</split>
			</split>
			<split pos="right">
				<feature> 1 </feature>
				<threshold> 0.25917232 </threshold>
				<split pos="left">
					<feature> 6 </feature>
					<threshold> 0.359375 </threshold>
					<split pos="left">
						<output> -0.04346375 </output>
					</split>
					<split pos="right">
						<output> 0.39217246 </output>
					</split>
				</split>
				<split pos="right">
					<output> 0.7288025 </output>
				</split>
			</split>
		</split>
	</tree>
	<tree id="54" weight="0.1">
		<split>
			<feature> 1 </feature>
			<threshold> 0.20260578 </threshold>
			<split pos="left">
				<feature> 11 </feature>
				<threshold> 0.15234375 </threshold>
				<split pos="left">
					<feature> 9 </feature>
					<threshold> 0.13671875 </threshold>
					<split pos="left">
						<feature> 1 </feature>
						<threshold> 0.15007974 </threshold>
						<split pos="left">
							<output> -0.44207013 </output>
						</split>
						<split pos="right">
							<output> -0.81382114 </output>
						</split>
					</split>
					<split pos="right">
						<feature> 1 </feature>
						<threshold> 0.15816067 </threshold>
						<split pos="left">
							<output> -0.267645 </output>
						</split>
						<split pos="right">
							<feature> 9 </feature>
							<threshold> 0.1484375 </threshold>
							<split pos="left">
								<output> 0.55991966 </output>
							</split>
							<split pos="right">
								<feature> 9 </feature>
								<threshold> 0.15234375 </threshold>
								<split pos="left">
									<output> -0.7806509 </output>
								</split>
								<split pos="right">
									<output> 0.13898115 </output>
								</split>
							</split>
						</split>
					</split>
				</split>
				<split pos="right">
					<feature> 10 </feature>
					<threshold> 0.3203125 </threshold>
					<split pos="left">
						<output> -0.13062295 </output>
					</split>
					<split pos="right">
						<output> 0.32834578 </output>
					</split>
				</split>
			</split>
			<split pos="right">
				<feature> 9 </feature>
				<threshold> 0.1484375 </threshold>
				<split pos="left">
					<output> -0.040260825 </output>
				</split>
				<split pos="right">
					<output> 0.4804576 </output>
				</split>
			</split>
		</split>
	</tree>
	<tree id="55" weight="0.1">
		<split>
			<feature> 1 </feature>
			<threshold> 0.25917232 </threshold>
			<split pos="left">
				<feature> 11 </feature>
				<threshold> 0.16796875 </threshold>
				<split pos="left">
					<feature> 9 </feature>
					<threshold> 0.140625 </threshold>
					<split pos="left">
						<feature> 9 </feature>
						<threshold> 0.05078125 </threshold>
						<split pos="left">
							<output> -0.0057090493 </output>
						</split>
						<split pos="right">
							<output> -0.5168787 </output>
						</split>
					</split>
					<split pos="right">
						<feature> 6 </feature>
						<threshold> 0.35546875 </threshold>
						<split pos="left">
							<feature> 3 </feature>
							<threshold> 0.546875 </threshold>
							<split pos="left">
								<feature> 10 </feature>
								<threshold> 0.33203125 </threshold>
								<split pos="left">
									<output> -0.42701435 </output>
								</split>
								<split pos="right">
									<output> -0.042078864 </output>
								</split>
							</split>
							<split pos="right">
								<output> -3.8804007 </output>
							</split>
						</split>
						<split pos="right">
							<feature> 1 </feature>
							<threshold> 0.12583695 </threshold>
							<split pos="left">
								<output> -0.123304315 </output>
							</split>
							<split pos="right">
								<feature> 1 </feature>
								<threshold> 0.2470509 </threshold>
								<split pos="left">
									<output> 0.26920855 </output>
								</split>
								<split pos="right">
									<output> -1.0994697 </output>
								</split>
							</split>
						</split>
					</split>
				</split>
				<split pos="right">
					<output> 0.30233514 </output>
				</split>
			</split>
			<split pos="right">
				<output> 0.6438745 </output>
			</split>
		</split>
	</tree>
	<tree id="56" weight="0.1">
		<split>
			<feature> 1 </feature>
			<threshold> 0.18644392 </threshold>
			<split pos="left">
				<feature> 8 </feature>
				<threshold> 0.34375 </threshold>
				<split pos="left">
					<feature> 1 </feature>
					<threshold> 0.17432253 </threshold>
					<split pos="left">
						<feature> 4 </feature>
						<threshold> 0.39453125 </threshold>
						<split pos="left">
							<output> -0.36878034 </output>
						</split>
						<split pos="right">
							<feature> 11 </feature>
							<threshold> 0.15234375 </threshold>
							<split pos="left">
								<output> -0.1641439 </output>
							</split>
							<split pos="right">
								<output> 0.2512227 </output>
							</split>
						</split>
					</split>
					<split pos="right">
						<output> -0.32325447 </output>
					</split>
				</split>
				<split pos="right">
					<output> 0.23283647 </output>
				</split>
			</split>
			<split pos="right">
				<feature> 4 </feature>
				<threshold> 0.38671875 </threshold>
				<split pos="left">
					<feature> 5 </feature>
					<threshold> 0.390625 </threshold>
					<split pos="left">
						<feature> 10 </feature>
						<threshold> 0.546875 </threshold>
						<split pos="left">
							<output> 0.06470317 </output>
						</split>
						<split pos="right">
							<output> -2.331551 </output>
						</split>
					</split>
					<split pos="right">
						<output> -2.531604 </output>
					</split>
				</split>
				<split pos="right">
					<feature> 4 </feature>
					<threshold> 0.53125 </threshold>
					<split pos="left">
						<output> 0.54806226 </output>
					</split>
					<split pos="right">
						<output> -0.22203004 </output>
					</split>
				</split>
			</split>
		</split>
	</tree>
	<tree id="57" weight="0.1">
		<split>
			<feature> 11 </feature>
			<threshold> 0.17578125 </threshold>
			<split pos="left">
				<feature> 1 </feature>
				<threshold> 0.31573904 </threshold>
				<split pos="left">
					<feature> 9 </feature>
					<threshold> 0.14453125 </threshold>
					<split pos="left">
						<feature> 1 </feature>
						<threshold> 0.17432253 </threshold>
						<split pos="left">
							<output> -0.2596766 </output>
						</split>
						<split pos="right">
							<feature> 5 </feature>
							<threshold> 0.390625 </threshold>
							<split pos="left">
								<output> -0.30051386 </output>
							</split>
							<split pos="right">
								<output> -5.8307996 </output>
							</split>
						</split>
					</split>
					<split pos="right">
						<feature> 1 </feature>
						<threshold> 0.29553664 </threshold>
						<split pos="left">
							<feature> 3 </feature>
